<?xml version="1.0"?>
<opencv_storage>
<stage6>
  <maxWeakCount>16</maxWeakCount>
  <stageThreshold>-2.5453391075134277e+00</stageThreshold>
  <weakClassifiers>
    <_>
      <internalNodes>
        0 -1 2900 -4.3592844158411026e-03</internalNodes>
      <leafValues>
        7.0370370149612427e-01 -9.8406374454498291e-01</leafValues></_>
    <_>
      <internalNodes>
        0 -1 605231 -3.9703538641333580e-03</internalNodes>
      <leafValues>
        8.1593555212020874e-01 -9.0914499759674072e-01</leafValues></_>
    <_>
      <internalNodes>
        0 -1 502104 -3.2894993200898170e-03</internalNodes>
      <leafValues>
        1. -5.7555043697357178e-01</leafValues></_>
    <_>
      <internalNodes>
        0 -1 623209 -1.2587010860443115e-02</internalNodes>
      <leafValues>
        9.6859335899353027e-01 -9.7358621656894684e-02</leafValues></_>
    <_>
      <internalNodes>
        0 -1 410891 5.8439564891159534e-03</internalNodes>
      <leafValues>
        3.6359336227178574e-02 -9.5140862464904785e-01</leafValues></_>
    <_>
      <internalNodes>
        0 -1 565583 1.0365864000050351e-04</internalNodes>
      <leafValues>
        -2.6685576885938644e-02 1.</leafValues></_>
    <_>
      <internalNodes>
        0 -1 360383 -2.9352172277867794e-03</internalNodes>
      <leafValues>
        -1. 1.5243523754179478e-02</leafValues></_>
    <_>
      <internalNodes>
        0 -1 389069 -1.7574845696799457e-04</internalNodes>
      <leafValues>
        1. -1.0217035189270973e-02</leafValues></_>
    <_>
      <internalNodes>
        0 -1 1618 -9.3383103376254439e-04</internalNodes>
      <leafValues>
        -1. 5.6216013617813587e-03</leafValues></_>
    <_>
      <internalNodes>
        0 -1 335 -4.4391152914613485e-04</internalNodes>
      <leafValues>
        1. -5.6766602210700512e-04</leafValues></_>
    <_>
      <internalNodes>
        0 -1 31271 1.1485647410154343e-03</internalNodes>
      <leafValues>
        1.0245901066809893e-03 -1.</leafValues></_>
    <_>
      <internalNodes>
        0 -1 280 -3.8499816582771018e-05</internalNodes>
      <leafValues>
        1. 3.5854874624874356e-10</leafValues></_>
    <_>
      <internalNodes>
        0 -1 275 -1.7434636902180500e-05</internalNodes>
      <leafValues>
        -1. -4.1985479254781719e-15</leafValues></_>
    <_>
      <internalNodes>
        0 -1 270 -3.8499816582771018e-05</internalNodes>
      <leafValues>
        1. -1.1867355107506375e-14</leafValues></_>
    <_>
      <internalNodes>
        0 -1 255 -5.9216206864221022e-05</internalNodes>
      <leafValues>
        -1. -5.4941865681364132e-16</leafValues></_>
    <_>
      <internalNodes>
        0 -1 21 -2.1225776436040178e-05</internalNodes>
      <leafValues>
        1. 1.8872259983059025e-14</leafValues></_></weakClassifiers></stage6>
</opencv_storage>
