<?xml version="1.0"?>
<opencv_storage>
<stage11>
  <maxWeakCount>100</maxWeakCount>
  <stageThreshold>-2.5478966236114502e+00</stageThreshold>
  <weakClassifiers>
    <_>
      <internalNodes>
        0 -1 1386 -3.3460021018981934e-02</internalNodes>
      <leafValues>
        1. -9.8019802570343018e-01</leafValues></_>
    <_>
      <internalNodes>
        0 -1 476322 -8.5983201861381531e-03</internalNodes>
      <leafValues>
        1. -9.1825759410858154e-01</leafValues></_>
    <_>
      <internalNodes>
        0 -1 1636 -3.0968445935286582e-04</internalNodes>
      <leafValues>
        9.0271538496017456e-01 -5.6806200742721558e-01</leafValues></_>
    <_>
      <internalNodes>
        0 -1 1386 -3.3460021018981934e-02</internalNodes>
      <leafValues>
        1. -9.1698125004768372e-02</leafValues></_>
    <_>
      <internalNodes>
        0 -1 453850 1.5830601114430465e-05</internalNodes>
      <leafValues>
        -7.6516345143318176e-03 8.7226223945617676e-01</leafValues></_>
    <_>
      <internalNodes>
        0 -1 547257 4.6661011874675751e-03</internalNodes>
      <leafValues>
        2.3727878928184509e-02 -1.</leafValues></_>
    <_>
      <internalNodes>
        0 -1 446347 1.5830601114430465e-05</internalNodes>
      <leafValues>
        -1.0944500565528870e-02 1.</leafValues></_>
    <_>
      <internalNodes>
        0 -1 475 2.3205110337585211e-03</internalNodes>
      <leafValues>
        7.5387088581919670e-03 -1.</leafValues></_>
    <_>
      <internalNodes>
        0 -1 512 -3.8710557419108227e-05</internalNodes>
      <leafValues>
        1. -3.1614294275641441e-03</leafValues></_>
    <_>
      <internalNodes>
        0 -1 475 2.3205110337585211e-03</internalNodes>
      <leafValues>
        8.1015529576689005e-04 -1.</leafValues></_>
    <_>
      <internalNodes>
        0 -1 152 -3.8499816582771018e-05</internalNodes>
      <leafValues>
        1. 1.7724799405982594e-10</leafValues></_>
    <_>
      <internalNodes>
        0 -1 147 -3.9790896698832512e-04</internalNodes>
      <leafValues>
        -1. -1.4870198713871907e-14</leafValues></_>
    <_>
      <internalNodes>
        0 -1 147 -7.8093778574839234e-04</internalNodes>
      <leafValues>
        1. 4.0258213903905486e-15</leafValues></_>
    <_>
      <internalNodes>
        0 -1 147 -3.9790896698832512e-04</internalNodes>
      <leafValues>
        -1. 3.3121550512308588e-15</leafValues></_>
    <_>
      <internalNodes>
        0 -1 147 -7.8093778574839234e-04</internalNodes>
      <leafValues>
        1. -7.3596908723781002e-16</leafValues></_>
    <_>
      <internalNodes>
        0 -1 147 -3.9790896698832512e-04</internalNodes>
      <leafValues>
        -1. 6.4968939008215685e-15</leafValues></_>
    <_>
      <internalNodes>
        0 -1 147 -7.8093778574839234e-04</internalNodes>
      <leafValues>
        1. 2.8523204518034044e-16</leafValues></_>
    <_>
      <internalNodes>
        0 -1 147 -3.9790896698832512e-04</internalNodes>
      <leafValues>
        -1. -9.2129715382788420e-15</leafValues></_>
    <_>
      <internalNodes>
        0 -1 147 -7.8093778574839234e-04</internalNodes>
      <leafValues>
        1. 1.1682189470071849e-15</leafValues></_>
    <_>
      <internalNodes>
        0 -1 147 -3.9790896698832512e-04</internalNodes>
      <leafValues>
        -1. 2.4934299450737971e-15</leafValues></_>
    <_>
      <internalNodes>
        0 -1 147 -7.8093778574839234e-04</internalNodes>
      <leafValues>
        1. -6.3649004390135757e-16</leafValues></_>
    <_>
      <internalNodes>
        0 -1 147 -3.9790896698832512e-04</internalNodes>
      <leafValues>
        -1. 6.1655680696571027e-15</leafValues></_>
    <_>
      <internalNodes>
        0 -1 147 -7.8093778574839234e-04</internalNodes>
      <leafValues>
        1. 7.0427666130202073e-17</leafValues></_>
    <_>
      <internalNodes>
        0 -1 147 -3.9790896698832512e-04</internalNodes>
      <leafValues>
        -1. -8.9903238458953656e-15</leafValues></_>
    <_>
      <internalNodes>
        0 -1 147 -7.8093778574839234e-04</internalNodes>
      <leafValues>
        1. 1.1583150142714140e-15</leafValues></_>
    <_>
      <internalNodes>
        0 -1 147 -3.9790896698832512e-04</internalNodes>
      <leafValues>
        -1. 2.4830690380629825e-15</leafValues></_>
    <_>
      <internalNodes>
        0 -1 147 -7.8093778574839234e-04</internalNodes>
      <leafValues>
        1. -1.0742420179378595e-15</leafValues></_>
    <_>
      <internalNodes>
        0 -1 147 -3.9790896698832512e-04</internalNodes>
      <leafValues>
        -1. 6.2244266950959096e-15</leafValues></_>
    <_>
      <internalNodes>
        0 -1 147 -7.8093778574839234e-04</internalNodes>
      <leafValues>
        1. 1.2698987936988408e-16</leafValues></_>
    <_>
      <internalNodes>
        0 -1 147 -3.9790896698832512e-04</internalNodes>
      <leafValues>
        -1. -8.9896623131635600e-15</leafValues></_>
    <_>
      <internalNodes>
        0 -1 147 -7.8093778574839234e-04</internalNodes>
      <leafValues>
        1. 1.1655778982776459e-15</leafValues></_>
    <_>
      <internalNodes>
        0 -1 147 -3.9790896698832512e-04</internalNodes>
      <leafValues>
        -1. 2.4903437805304761e-15</leafValues></_>
    <_>
      <internalNodes>
        0 -1 147 -7.8093778574839234e-04</internalNodes>
      <leafValues>
        1. -1.0740218952506918e-15</leafValues></_>
    <_>
      <internalNodes>
        0 -1 147 -3.9790896698832512e-04</internalNodes>
      <leafValues>
        -1. 6.2250878043112415e-15</leafValues></_>
    <_>
      <internalNodes>
        0 -1 147 -7.8093778574839234e-04</internalNodes>
      <leafValues>
        1. 1.2941083188203488e-16</leafValues></_>
    <_>
      <internalNodes>
        0 -1 147 -3.9790896698832512e-04</internalNodes>
      <leafValues>
        -1. -8.9872381048685182e-15</leafValues></_>
    <_>
      <internalNodes>
        0 -1 147 -7.8093778574839234e-04</internalNodes>
      <leafValues>
        1. 1.1657979150856953e-15</leafValues></_>
    <_>
      <internalNodes>
        0 -1 147 -3.9790896698832512e-04</internalNodes>
      <leafValues>
        -1. 2.4927686241002283e-15</leafValues></_>
    <_>
      <internalNodes>
        0 -1 147 -7.8093778574839234e-04</internalNodes>
      <leafValues>
        1. -6.3715030608374229e-16</leafValues></_>
    <_>
      <internalNodes>
        0 -1 147 -3.9790896698832512e-04</internalNodes>
      <leafValues>
        -1. 6.1653478410908166e-15</leafValues></_>
    <_>
      <internalNodes>
        0 -1 147 -7.8093778574839234e-04</internalNodes>
      <leafValues>
        1. 6.3164815211194577e-17</leafValues></_>
    <_>
      <internalNodes>
        0 -1 147 -3.9790896698832512e-04</internalNodes>
      <leafValues>
        -1. -8.9905440744616517e-15</leafValues></_>
    <_>
      <internalNodes>
        0 -1 147 -7.8093778574839234e-04</internalNodes>
      <leafValues>
        1. 1.1558940882290428e-15</leafValues></_>
    <_>
      <internalNodes>
        0 -1 147 -3.9790896698832512e-04</internalNodes>
      <leafValues>
        -1. 2.4828485977384596e-15</leafValues></_>
    <_>
      <internalNodes>
        0 -1 147 -7.8093778574839234e-04</internalNodes>
      <leafValues>
        1. -1.0749022801202443e-15</leafValues></_>
    <_>
      <internalNodes>
        0 -1 147 -3.9790896698832512e-04</internalNodes>
      <leafValues>
        -1. 6.2220016397679205e-15</leafValues></_>
    <_>
      <internalNodes>
        0 -1 147 -7.8093778574839234e-04</internalNodes>
      <leafValues>
        1. 1.2676979638738577e-16</leafValues></_>
    <_>
      <internalNodes>
        0 -1 147 -3.9790896698832512e-04</internalNodes>
      <leafValues>
        -1. -8.9903238458953656e-15</leafValues></_>
    <_>
      <internalNodes>
        0 -1 147 -7.8093778574839234e-04</internalNodes>
      <leafValues>
        1. 1.1583150142714140e-15</leafValues></_>
    <_>
      <internalNodes>
        0 -1 147 -3.9790896698832512e-04</internalNodes>
      <leafValues>
        -1. 2.4830690380629825e-15</leafValues></_>
    <_>
      <internalNodes>
        0 -1 147 -7.8093778574839234e-04</internalNodes>
      <leafValues>
        1. -1.0742420179378595e-15</leafValues></_>
    <_>
      <internalNodes>
        0 -1 147 -3.9790896698832512e-04</internalNodes>
      <leafValues>
        -1. 6.2244266950959096e-15</leafValues></_>
    <_>
      <internalNodes>
        0 -1 147 -7.8093778574839234e-04</internalNodes>
      <leafValues>
        1. 1.2698987936988408e-16</leafValues></_>
    <_>
      <internalNodes>
        0 -1 147 -3.9790896698832512e-04</internalNodes>
      <leafValues>
        -1. -8.9896623131635600e-15</leafValues></_>
    <_>
      <internalNodes>
        0 -1 147 -7.8093778574839234e-04</internalNodes>
      <leafValues>
        1. 1.1655778982776459e-15</leafValues></_>
    <_>
      <internalNodes>
        0 -1 147 -3.9790896698832512e-04</internalNodes>
      <leafValues>
        -1. 2.4903437805304761e-15</leafValues></_>
    <_>
      <internalNodes>
        0 -1 147 -7.8093778574839234e-04</internalNodes>
      <leafValues>
        1. -1.0740218952506918e-15</leafValues></_>
    <_>
      <internalNodes>
        0 -1 147 -3.9790896698832512e-04</internalNodes>
      <leafValues>
        -1. 6.2250878043112415e-15</leafValues></_>
    <_>
      <internalNodes>
        0 -1 147 -7.8093778574839234e-04</internalNodes>
      <leafValues>
        1. 1.2941083188203488e-16</leafValues></_>
    <_>
      <internalNodes>
        0 -1 147 -3.9790896698832512e-04</internalNodes>
      <leafValues>
        -1. -8.9872381048685182e-15</leafValues></_>
    <_>
      <internalNodes>
        0 -1 147 -7.8093778574839234e-04</internalNodes>
      <leafValues>
        1. 1.1657979150856953e-15</leafValues></_>
    <_>
      <internalNodes>
        0 -1 147 -3.9790896698832512e-04</internalNodes>
      <leafValues>
        -1. 2.4927686241002283e-15</leafValues></_>
    <_>
      <internalNodes>
        0 -1 147 -7.8093778574839234e-04</internalNodes>
      <leafValues>
        1. -6.3715030608374229e-16</leafValues></_>
    <_>
      <internalNodes>
        0 -1 147 -3.9790896698832512e-04</internalNodes>
      <leafValues>
        -1. 6.1653478410908166e-15</leafValues></_>
    <_>
      <internalNodes>
        0 -1 147 -7.8093778574839234e-04</internalNodes>
      <leafValues>
        1. 6.3164815211194577e-17</leafValues></_>
    <_>
      <internalNodes>
        0 -1 147 -3.9790896698832512e-04</internalNodes>
      <leafValues>
        -1. -8.9905440744616517e-15</leafValues></_>
    <_>
      <internalNodes>
        0 -1 147 -7.8093778574839234e-04</internalNodes>
      <leafValues>
        1. 1.1558940882290428e-15</leafValues></_>
    <_>
      <internalNodes>
        0 -1 147 -3.9790896698832512e-04</internalNodes>
      <leafValues>
        -1. 2.4828485977384596e-15</leafValues></_>
    <_>
      <internalNodes>
        0 -1 147 -7.8093778574839234e-04</internalNodes>
      <leafValues>
        1. -1.0749022801202443e-15</leafValues></_>
    <_>
      <internalNodes>
        0 -1 147 -3.9790896698832512e-04</internalNodes>
      <leafValues>
        -1. 6.2220016397679205e-15</leafValues></_>
    <_>
      <internalNodes>
        0 -1 147 -7.8093778574839234e-04</internalNodes>
      <leafValues>
        1. 1.2676979638738577e-16</leafValues></_>
    <_>
      <internalNodes>
        0 -1 147 -3.9790896698832512e-04</internalNodes>
      <leafValues>
        -1. -8.9903238458953656e-15</leafValues></_>
    <_>
      <internalNodes>
        0 -1 147 -7.8093778574839234e-04</internalNodes>
      <leafValues>
        1. 1.1583150142714140e-15</leafValues></_>
    <_>
      <internalNodes>
        0 -1 147 -3.9790896698832512e-04</internalNodes>
      <leafValues>
        -1. 2.4830690380629825e-15</leafValues></_>
    <_>
      <internalNodes>
        0 -1 147 -7.8093778574839234e-04</internalNodes>
      <leafValues>
        1. -1.0742420179378595e-15</leafValues></_>
    <_>
      <internalNodes>
        0 -1 147 -3.9790896698832512e-04</internalNodes>
      <leafValues>
        -1. 6.2244266950959096e-15</leafValues></_>
    <_>
      <internalNodes>
        0 -1 147 -7.8093778574839234e-04</internalNodes>
      <leafValues>
        1. 1.2698987936988408e-16</leafValues></_>
    <_>
      <internalNodes>
        0 -1 147 -3.9790896698832512e-04</internalNodes>
      <leafValues>
        -1. -8.9896623131635600e-15</leafValues></_>
    <_>
      <internalNodes>
        0 -1 147 -7.8093778574839234e-04</internalNodes>
      <leafValues>
        1. 1.1655778982776459e-15</leafValues></_>
    <_>
      <internalNodes>
        0 -1 147 -3.9790896698832512e-04</internalNodes>
      <leafValues>
        -1. 2.4903437805304761e-15</leafValues></_>
    <_>
      <internalNodes>
        0 -1 147 -7.8093778574839234e-04</internalNodes>
      <leafValues>
        1. -1.0740218952506918e-15</leafValues></_>
    <_>
      <internalNodes>
        0 -1 147 -3.9790896698832512e-04</internalNodes>
      <leafValues>
        -1. 6.5498004257400193e-15</leafValues></_>
    <_>
      <internalNodes>
        0 -1 147 -7.8093778574839234e-04</internalNodes>
      <leafValues>
        1. -9.8598731258793922e-17</leafValues></_>
    <_>
      <internalNodes>
        0 -1 147 -3.9790896698832512e-04</internalNodes>
      <leafValues>
        -1. -8.9896623131635600e-15</leafValues></_>
    <_>
      <internalNodes>
        0 -1 147 -7.8093778574839234e-04</internalNodes>
      <leafValues>
        1. 1.1655778982776459e-15</leafValues></_>
    <_>
      <internalNodes>
        0 -1 147 -3.9790896698832512e-04</internalNodes>
      <leafValues>
        -1. 2.4903437805304761e-15</leafValues></_>
    <_>
      <internalNodes>
        0 -1 147 -7.8093778574839234e-04</internalNodes>
      <leafValues>
        1. -1.0740218952506918e-15</leafValues></_>
    <_>
      <internalNodes>
        0 -1 147 -3.9790896698832512e-04</internalNodes>
      <leafValues>
        -1. 6.5498004257400193e-15</leafValues></_>
    <_>
      <internalNodes>
        0 -1 147 -7.8093778574839234e-04</internalNodes>
      <leafValues>
        1. -9.8598731258793922e-17</leafValues></_>
    <_>
      <internalNodes>
        0 -1 147 -3.9790896698832512e-04</internalNodes>
      <leafValues>
        -1. -8.9896623131635600e-15</leafValues></_>
    <_>
      <internalNodes>
        0 -1 147 -7.8093778574839234e-04</internalNodes>
      <leafValues>
        1. 1.1655778982776459e-15</leafValues></_>
    <_>
      <internalNodes>
        0 -1 147 -3.9790896698832512e-04</internalNodes>
      <leafValues>
        -1. 2.4903437805304761e-15</leafValues></_>
    <_>
      <internalNodes>
        0 -1 147 -7.8093778574839234e-04</internalNodes>
      <leafValues>
        1. -1.0740218952506918e-15</leafValues></_>
    <_>
      <internalNodes>
        0 -1 147 -3.9790896698832512e-04</internalNodes>
      <leafValues>
        -1. 6.5498004257400193e-15</leafValues></_>
    <_>
      <internalNodes>
        0 -1 147 -7.8093778574839234e-04</internalNodes>
      <leafValues>
        1. -9.8598731258793922e-17</leafValues></_>
    <_>
      <internalNodes>
        0 -1 147 -3.9790896698832512e-04</internalNodes>
      <leafValues>
        -1. -8.9896623131635600e-15</leafValues></_>
    <_>
      <internalNodes>
        0 -1 147 -7.8093778574839234e-04</internalNodes>
      <leafValues>
        1. 1.1655778982776459e-15</leafValues></_>
    <_>
      <internalNodes>
        0 -1 147 -3.9790896698832512e-04</internalNodes>
      <leafValues>
        -1. 2.4903437805304761e-15</leafValues></_>
    <_>
      <internalNodes>
        0 -1 147 -7.8093778574839234e-04</internalNodes>
      <leafValues>
        1. -1.0740218952506918e-15</leafValues></_>
    <_>
      <internalNodes>
        0 -1 147 -3.9790896698832512e-04</internalNodes>
      <leafValues>
        -1. 6.5498004257400193e-15</leafValues></_></weakClassifiers></stage11>
</opencv_storage>
