<?xml version="1.0"?>
<opencv_storage>
<stage8>
  <maxWeakCount>100</maxWeakCount>
  <stageThreshold>-2.5559937953948975e+00</stageThreshold>
  <weakClassifiers>
    <_>
      <internalNodes>
        0 -1 1636 -3.0968445935286582e-04</internalNodes>
      <leafValues>
        9.2000001668930054e-01 -9.8608350753784180e-01</leafValues></_>
    <_>
      <internalNodes>
        0 -1 1469 -1.7270013689994812e-02</internalNodes>
      <leafValues>
        1. -9.1388231515884399e-01</leafValues></_>
    <_>
      <internalNodes>
        0 -1 1164 6.2869477551430464e-04</internalNodes>
      <leafValues>
        -5.7895362377166748e-01 1.</leafValues></_>
    <_>
      <internalNodes>
        0 -1 621928 -2.3339127073995769e-04</internalNodes>
      <leafValues>
        1. -7.9938717186450958e-02</leafValues></_>
    <_>
      <internalNodes>
        0 -1 515626 4.0216305933427066e-05</internalNodes>
      <leafValues>
        -7.5530086178332567e-04 1.</leafValues></_>
    <_>
      <internalNodes>
        0 -1 62 -5.4670617828378454e-05</internalNodes>
      <leafValues>
        -1. 5.5287685245275497e-03</leafValues></_>
    <_>
      <internalNodes>
        0 -1 26594 9.6249541456927545e-06</internalNodes>
      <leafValues>
        -3.1431484967470169e-03 1.</leafValues></_>
    <_>
      <internalNodes>
        0 -1 28 1.0537119123910088e-05</internalNodes>
      <leafValues>
        1.2338908854871988e-03 -1.</leafValues></_>
    <_>
      <internalNodes>
        0 -1 28 1.2658786545216572e-05</internalNodes>
      <leafValues>
        6.2618310536777244e-10 1.</leafValues></_>
    <_>
      <internalNodes>
        0 -1 28 1.0537119123910088e-05</internalNodes>
      <leafValues>
        1.7904091159951993e-14 -1.</leafValues></_>
    <_>
      <internalNodes>
        0 -1 28 1.2658786545216572e-05</internalNodes>
      <leafValues>
        -1.2392947521607141e-14 1.</leafValues></_>
    <_>
      <internalNodes>
        0 -1 28 1.0537119123910088e-05</internalNodes>
      <leafValues>
        -4.1474565921656870e-15 -1.</leafValues></_>
    <_>
      <internalNodes>
        0 -1 28 1.2658786545216572e-05</internalNodes>
      <leafValues>
        6.0494678046757976e-15 1.</leafValues></_>
    <_>
      <internalNodes>
        0 -1 28 1.0537119123910088e-05</internalNodes>
      <leafValues>
        -1.6311990032842681e-15 -1.</leafValues></_>
    <_>
      <internalNodes>
        0 -1 28 1.2658786545216572e-05</internalNodes>
      <leafValues>
        -6.4063105033762991e-15 1.</leafValues></_>
    <_>
      <internalNodes>
        0 -1 28 1.0537119123910088e-05</internalNodes>
      <leafValues>
        9.7854465907354230e-16 -1.</leafValues></_>
    <_>
      <internalNodes>
        0 -1 28 1.2658786545216572e-05</internalNodes>
      <leafValues>
        3.1673615451613141e-15 1.</leafValues></_>
    <_>
      <internalNodes>
        0 -1 28 1.0537119123910088e-05</internalNodes>
      <leafValues>
        -9.4337818044414870e-16 -1.</leafValues></_>
    <_>
      <internalNodes>
        0 -1 28 1.2658786545216572e-05</internalNodes>
      <leafValues>
        6.9923641292520770e-15 1.</leafValues></_>
    <_>
      <internalNodes>
        0 -1 28 1.0537119123910088e-05</internalNodes>
      <leafValues>
        -1.9605841760874558e-15 -1.</leafValues></_>
    <_>
      <internalNodes>
        0 -1 28 1.2658786545216572e-05</internalNodes>
      <leafValues>
        -8.0572001639480327e-15 1.</leafValues></_>
    <_>
      <internalNodes>
        0 -1 28 1.0537119123910088e-05</internalNodes>
      <leafValues>
        1.4680354701711459e-15 -1.</leafValues></_>
    <_>
      <internalNodes>
        0 -1 28 1.2658786545216572e-05</internalNodes>
      <leafValues>
        3.2374164638551651e-15 1.</leafValues></_>
    <_>
      <internalNodes>
        0 -1 28 1.0537119123910088e-05</internalNodes>
      <leafValues>
        -1.0097794225200183e-15 -1.</leafValues></_>
    <_>
      <internalNodes>
        0 -1 28 1.2658786545216572e-05</internalNodes>
      <leafValues>
        6.9601828064870443e-15 1.</leafValues></_>
    <_>
      <internalNodes>
        0 -1 28 1.0537119123910088e-05</internalNodes>
      <leafValues>
        -1.9992453008989839e-15 -1.</leafValues></_>
    <_>
      <internalNodes>
        0 -1 28 1.2658786545216572e-05</internalNodes>
      <leafValues>
        -8.0701165693607135e-15 1.</leafValues></_>
    <_>
      <internalNodes>
        0 -1 28 1.0537119123910088e-05</internalNodes>
      <leafValues>
        -2.8307899330753841e-16 -1.</leafValues></_>
    <_>
      <internalNodes>
        0 -1 28 1.2658786545216572e-05</internalNodes>
      <leafValues>
        3.6157134483184340e-15 1.</leafValues></_>
    <_>
      <internalNodes>
        0 -1 28 1.0537119123910088e-05</internalNodes>
      <leafValues>
        -8.3875256492017911e-16 -1.</leafValues></_>
    <_>
      <internalNodes>
        0 -1 28 1.2658786545216572e-05</internalNodes>
      <leafValues>
        6.9923641292520770e-15 1.</leafValues></_>
    <_>
      <internalNodes>
        0 -1 28 1.0537119123910088e-05</internalNodes>
      <leafValues>
        -2.0162825216000569e-15 -1.</leafValues></_>
    <_>
      <internalNodes>
        0 -1 28 1.2658786545216572e-05</internalNodes>
      <leafValues>
        -8.0011562289929519e-15 1.</leafValues></_>
    <_>
      <internalNodes>
        0 -1 28 1.0537119123910088e-05</internalNodes>
      <leafValues>
        1.6357858984518870e-15 -1.</leafValues></_>
    <_>
      <internalNodes>
        0 -1 28 1.2658786545216572e-05</internalNodes>
      <leafValues>
        3.2374164638551651e-15 1.</leafValues></_>
    <_>
      <internalNodes>
        0 -1 28 1.0537119123910088e-05</internalNodes>
      <leafValues>
        -1.0097794225200183e-15 -1.</leafValues></_>
    <_>
      <internalNodes>
        0 -1 28 1.2658786545216572e-05</internalNodes>
      <leafValues>
        6.9601828064870443e-15 1.</leafValues></_>
    <_>
      <internalNodes>
        0 -1 28 1.0537119123910088e-05</internalNodes>
      <leafValues>
        -1.9992453008989839e-15 -1.</leafValues></_>
    <_>
      <internalNodes>
        0 -1 28 1.2658786545216572e-05</internalNodes>
      <leafValues>
        -8.0701165693607135e-15 1.</leafValues></_>
    <_>
      <internalNodes>
        0 -1 28 1.0537119123910088e-05</internalNodes>
      <leafValues>
        -2.8307899330753841e-16 -1.</leafValues></_>
    <_>
      <internalNodes>
        0 -1 28 1.2658786545216572e-05</internalNodes>
      <leafValues>
        3.6157134483184340e-15 1.</leafValues></_>
    <_>
      <internalNodes>
        0 -1 28 1.0537119123910088e-05</internalNodes>
      <leafValues>
        -8.3875256492017911e-16 -1.</leafValues></_>
    <_>
      <internalNodes>
        0 -1 28 1.2658786545216572e-05</internalNodes>
      <leafValues>
        6.9923641292520770e-15 1.</leafValues></_>
    <_>
      <internalNodes>
        0 -1 28 1.0537119123910088e-05</internalNodes>
      <leafValues>
        -1.9605841760874558e-15 -1.</leafValues></_>
    <_>
      <internalNodes>
        0 -1 28 1.2658786545216572e-05</internalNodes>
      <leafValues>
        -8.0572001639480327e-15 1.</leafValues></_>
    <_>
      <internalNodes>
        0 -1 28 1.0537119123910088e-05</internalNodes>
      <leafValues>
        1.4680354701711459e-15 -1.</leafValues></_>
    <_>
      <internalNodes>
        0 -1 28 1.2658786545216572e-05</internalNodes>
      <leafValues>
        3.2374164638551651e-15 1.</leafValues></_>
    <_>
      <internalNodes>
        0 -1 28 1.0537119123910088e-05</internalNodes>
      <leafValues>
        -1.0097794225200183e-15 -1.</leafValues></_>
    <_>
      <internalNodes>
        0 -1 28 1.2658786545216572e-05</internalNodes>
      <leafValues>
        6.9601828064870443e-15 1.</leafValues></_>
    <_>
      <internalNodes>
        0 -1 28 1.0537119123910088e-05</internalNodes>
      <leafValues>
        -1.9992453008989839e-15 -1.</leafValues></_>
    <_>
      <internalNodes>
        0 -1 28 1.2658786545216572e-05</internalNodes>
      <leafValues>
        -8.0701165693607135e-15 1.</leafValues></_>
    <_>
      <internalNodes>
        0 -1 28 1.0537119123910088e-05</internalNodes>
      <leafValues>
        -2.8307899330753841e-16 -1.</leafValues></_>
    <_>
      <internalNodes>
        0 -1 28 1.2658786545216572e-05</internalNodes>
      <leafValues>
        3.6157134483184340e-15 1.</leafValues></_>
    <_>
      <internalNodes>
        0 -1 28 1.0537119123910088e-05</internalNodes>
      <leafValues>
        -8.3875256492017911e-16 -1.</leafValues></_>
    <_>
      <internalNodes>
        0 -1 28 1.2658786545216572e-05</internalNodes>
      <leafValues>
        6.9923641292520770e-15 1.</leafValues></_>
    <_>
      <internalNodes>
        0 -1 28 1.0537119123910088e-05</internalNodes>
      <leafValues>
        -1.9605841760874558e-15 -1.</leafValues></_>
    <_>
      <internalNodes>
        0 -1 28 1.2658786545216572e-05</internalNodes>
      <leafValues>
        -8.0572001639480327e-15 1.</leafValues></_>
    <_>
      <internalNodes>
        0 -1 28 1.0537119123910088e-05</internalNodes>
      <leafValues>
        1.4680354701711459e-15 -1.</leafValues></_>
    <_>
      <internalNodes>
        0 -1 28 1.2658786545216572e-05</internalNodes>
      <leafValues>
        3.2374164638551651e-15 1.</leafValues></_>
    <_>
      <internalNodes>
        0 -1 28 1.0537119123910088e-05</internalNodes>
      <leafValues>
        -1.0097794225200183e-15 -1.</leafValues></_>
    <_>
      <internalNodes>
        0 -1 28 1.2658786545216572e-05</internalNodes>
      <leafValues>
        6.9601828064870443e-15 1.</leafValues></_>
    <_>
      <internalNodes>
        0 -1 28 1.0537119123910088e-05</internalNodes>
      <leafValues>
        -1.9992453008989839e-15 -1.</leafValues></_>
    <_>
      <internalNodes>
        0 -1 28 1.2658786545216572e-05</internalNodes>
      <leafValues>
        -8.0701165693607135e-15 1.</leafValues></_>
    <_>
      <internalNodes>
        0 -1 28 1.0537119123910088e-05</internalNodes>
      <leafValues>
        -2.8307899330753841e-16 -1.</leafValues></_>
    <_>
      <internalNodes>
        0 -1 28 1.2658786545216572e-05</internalNodes>
      <leafValues>
        3.6157134483184340e-15 1.</leafValues></_>
    <_>
      <internalNodes>
        0 -1 28 1.0537119123910088e-05</internalNodes>
      <leafValues>
        -8.3875256492017911e-16 -1.</leafValues></_>
    <_>
      <internalNodes>
        0 -1 28 1.2658786545216572e-05</internalNodes>
      <leafValues>
        6.9923641292520770e-15 1.</leafValues></_>
    <_>
      <internalNodes>
        0 -1 28 1.0537119123910088e-05</internalNodes>
      <leafValues>
        -2.0162825216000569e-15 -1.</leafValues></_>
    <_>
      <internalNodes>
        0 -1 28 1.2658786545216572e-05</internalNodes>
      <leafValues>
        -8.1125876483689914e-15 1.</leafValues></_>
    <_>
      <internalNodes>
        0 -1 28 1.0537119123910088e-05</internalNodes>
      <leafValues>
        1.4686906501558471e-15 -1.</leafValues></_>
    <_>
      <internalNodes>
        0 -1 28 1.2658786545216572e-05</internalNodes>
      <leafValues>
        3.2398245785242091e-15 1.</leafValues></_>
    <_>
      <internalNodes>
        0 -1 28 1.0537119123910088e-05</internalNodes>
      <leafValues>
        -1.0073768135651314e-15 -1.</leafValues></_>
    <_>
      <internalNodes>
        0 -1 28 1.2658786545216572e-05</internalNodes>
      <leafValues>
        6.9625909211560883e-15 1.</leafValues></_>
    <_>
      <internalNodes>
        0 -1 28 1.0537119123910088e-05</internalNodes>
      <leafValues>
        -1.9990269781568291e-15 -1.</leafValues></_>
    <_>
      <internalNodes>
        0 -1 28 1.2658786545216572e-05</internalNodes>
      <leafValues>
        -8.0694601188265914e-15 1.</leafValues></_>
    <_>
      <internalNodes>
        0 -1 28 1.0537119123910088e-05</internalNodes>
      <leafValues>
        -2.8286056468626521e-16 -1.</leafValues></_>
    <_>
      <internalNodes>
        0 -1 28 1.2658786545216572e-05</internalNodes>
      <leafValues>
        3.6181215629874780e-15 1.</leafValues></_>
    <_>
      <internalNodes>
        0 -1 28 1.0537119123910088e-05</internalNodes>
      <leafValues>
        -8.3154452629728183e-16 -1.</leafValues></_>
    <_>
      <internalNodes>
        0 -1 28 1.2658786545216572e-05</internalNodes>
      <leafValues>
        6.9947722439211209e-15 1.</leafValues></_>
    <_>
      <internalNodes>
        0 -1 28 1.0537119123910088e-05</internalNodes>
      <leafValues>
        -2.0162825216000569e-15 -1.</leafValues></_>
    <_>
      <internalNodes>
        0 -1 28 1.2658786545216572e-05</internalNodes>
      <leafValues>
        -8.1125876483689914e-15 1.</leafValues></_>
    <_>
      <internalNodes>
        0 -1 28 1.0537119123910088e-05</internalNodes>
      <leafValues>
        1.4686906501558471e-15 -1.</leafValues></_>
    <_>
      <internalNodes>
        0 -1 28 1.2658786545216572e-05</internalNodes>
      <leafValues>
        3.2398245785242091e-15 1.</leafValues></_>
    <_>
      <internalNodes>
        0 -1 28 1.0537119123910088e-05</internalNodes>
      <leafValues>
        -1.0073768135651314e-15 -1.</leafValues></_>
    <_>
      <internalNodes>
        0 -1 28 1.2658786545216572e-05</internalNodes>
      <leafValues>
        6.9625909211560883e-15 1.</leafValues></_>
    <_>
      <internalNodes>
        0 -1 28 1.0537119123910088e-05</internalNodes>
      <leafValues>
        -2.0267668836629338e-15 -1.</leafValues></_>
    <_>
      <internalNodes>
        0 -1 28 1.2658786545216572e-05</internalNodes>
      <leafValues>
        -8.1230959391126283e-15 1.</leafValues></_>
    <_>
      <internalNodes>
        0 -1 28 1.0537119123910088e-05</internalNodes>
      <leafValues>
        -2.8045790279181918e-16 -1.</leafValues></_>
    <_>
      <internalNodes>
        0 -1 28 1.2658786545216572e-05</internalNodes>
      <leafValues>
        3.6253459069946099e-15 1.</leafValues></_>
    <_>
      <internalNodes>
        0 -1 28 1.0537119123910088e-05</internalNodes>
      <leafValues>
        -8.2914186440283580e-16 -1.</leafValues></_>
    <_>
      <internalNodes>
        0 -1 28 1.2658786545216572e-05</internalNodes>
      <leafValues>
        7.0019970114447265e-15 1.</leafValues></_>
    <_>
      <internalNodes>
        0 -1 28 1.0537119123910088e-05</internalNodes>
      <leafValues>
        -2.0138799126451700e-15 -1.</leafValues></_>
    <_>
      <internalNodes>
        0 -1 28 1.2658786545216572e-05</internalNodes>
      <leafValues>
        -6.3469826216847134e-15 1.</leafValues></_>
    <_>
      <internalNodes>
        0 -1 28 1.0537119123910088e-05</internalNodes>
      <leafValues>
        -7.1381340525515690e-16 -1.</leafValues></_>
    <_>
      <internalNodes>
        0 -1 28 1.2658786545216572e-05</internalNodes>
      <leafValues>
        3.5763073580297958e-15 1.</leafValues></_>
    <_>
      <internalNodes>
        0 -1 28 1.0537119123910088e-05</internalNodes>
      <leafValues>
        -7.8370945233183849e-16 -1.</leafValues></_>
    <_>
      <internalNodes>
        0 -1 28 1.2658786545216572e-05</internalNodes>
      <leafValues>
        6.9601828064870443e-15 1.</leafValues></_>
    <_>
      <internalNodes>
        0 -1 28 1.0537119123910088e-05</internalNodes>
      <leafValues>
        -2.0549438581698217e-15 -1.</leafValues></_>
    <_>
      <internalNodes>
        0 -1 28 1.2658786545216572e-05</internalNodes>
      <leafValues>
        -8.1230959391126283e-15 1.</leafValues></_>
    <_>
      <internalNodes>
        0 -1 28 1.0537119123910088e-05</internalNodes>
      <leafValues>
        -2.8045790279181918e-16 -1.</leafValues></_></weakClassifiers></stage8>
</opencv_storage>
