<?xml version="1.0"?>
<opencv_storage>
<stage9>
  <maxWeakCount>8</maxWeakCount>
  <stageThreshold>-2.5544855594635010e+00</stageThreshold>
  <weakClassifiers>
    <_>
      <internalNodes>
        0 -1 67502 -2.1225777163635939e-04</internalNodes>
      <leafValues>
        9.2000001668930054e-01 -9.8608350753784180e-01</leafValues></_>
    <_>
      <internalNodes>
        0 -1 30054 -1.2208737432956696e-02</internalNodes>
      <leafValues>
        1. -9.1388231515884399e-01</leafValues></_>
    <_>
      <internalNodes>
        0 -1 62 -3.8499816582771018e-05</internalNodes>
      <leafValues>
        1. -5.7895362377166748e-01</leafValues></_>
    <_>
      <internalNodes>
        0 -1 27899 1.0464811930432916e-04</internalNodes>
      <leafValues>
        -7.9938717186450958e-02 1.</leafValues></_>
    <_>
      <internalNodes>
        0 -1 196894 -4.0216305933427066e-05</internalNodes>
      <leafValues>
        1. -7.5530086178332567e-04</leafValues></_>
    <_>
      <internalNodes>
        0 -1 77527 -6.7487380874808878e-05</internalNodes>
      <leafValues>
        -1. 7.0370053872466087e-03</leafValues></_>
    <_>
      <internalNodes>
        0 -1 390 -1.2658786545216572e-05</internalNodes>
      <leafValues>
        1. -3.1449489761143923e-03</leafValues></_>
    <_>
      <internalNodes>
        0 -1 0 5.7467439910396934e-04</internalNodes>
      <leafValues>
        1.2357512023299932e-03 -1.</leafValues></_></weakClassifiers></stage9>
</opencv_storage>
