<?xml version="1.0"?>
<opencv_storage>
<stage10>
  <maxWeakCount>14</maxWeakCount>
  <stageThreshold>-2.5484066009521484e+00</stageThreshold>
  <weakClassifiers>
    <_>
      <internalNodes>
        0 -1 97486 1.6642326954752207e-05</internalNodes>
      <leafValues>
        -9.8214286565780640e-01 9.1304349899291992e-01</leafValues></_>
    <_>
      <internalNodes>
        0 -1 100057 -7.7820535807404667e-05</internalNodes>
      <leafValues>
        1. -9.0670216083526611e-01</leafValues></_>
    <_>
      <internalNodes>
        0 -1 30028 -1.1453472325229086e-05</internalNodes>
      <leafValues>
        9.6661311388015747e-01 -5.8594888448715210e-01</leafValues></_>
    <_>
      <internalNodes>
        0 -1 318860 7.4765458703041077e-03</internalNodes>
      <leafValues>
        -8.1737950444221497e-02 9.2479211091995239e-01</leafValues></_>
    <_>
      <internalNodes>
        0 -1 517652 -1.7574846424395218e-05</internalNodes>
      <leafValues>
        1. -3.7831065710633993e-03</leafValues></_>
    <_>
      <internalNodes>
        0 -1 369208 -9.6858348697423935e-03</internalNodes>
      <leafValues>
        -1. 1.5912035480141640e-02</leafValues></_>
    <_>
      <internalNodes>
        0 -1 318856 2.2376175038516521e-03</internalNodes>
      <leafValues>
        -7.6702814549207687e-03 1.</leafValues></_>
    <_>
      <internalNodes>
        0 -1 554574 2.4412534548901021e-04</internalNodes>
      <leafValues>
        4.6263672411441803e-03 -1.</leafValues></_>
    <_>
      <internalNodes>
        0 -1 25238 6.6569301998242736e-04</internalNodes>
      <leafValues>
        -9.5964374486356974e-04 1.</leafValues></_>
    <_>
      <internalNodes>
        0 -1 106 4.4136424548923969e-05</internalNodes>
      <leafValues>
        -2.9458957495620552e-10 -1.</leafValues></_>
    <_>
      <internalNodes>
        0 -1 88 5.6964538089232519e-05</internalNodes>
      <leafValues>
        -1.2899861800429765e-15 1.</leafValues></_>
    <_>
      <internalNodes>
        0 -1 61 1.0698554106056690e-03</internalNodes>
      <leafValues>
        -1.0057849633715327e-14 -1.</leafValues></_>
    <_>
      <internalNodes>
        0 -1 28 1.1059484677389264e-04</internalNodes>
      <leafValues>
        1.2934877507194548e-14 1.</leafValues></_>
    <_>
      <internalNodes>
        0 -1 28 2.6026288978755474e-03</internalNodes>
      <leafValues>
        -2.0959383046411512e-14 -1.</leafValues></_></weakClassifiers></stage10>
</opencv_storage>
