<?xml version="1.0"?>
<opencv_storage>
<stage15>
  <maxWeakCount>7</maxWeakCount>
  <stageThreshold>-1.2269723415374756e+00</stageThreshold>
  <weakClassifiers>
    <_>
      <internalNodes>
        0 -1 146235 -2.7393296360969543e-02</internalNodes>
      <leafValues>
        6.1904764175415039e-01 -6.1240309476852417e-01</leafValues></_>
    <_>
      <internalNodes>
        0 -1 37836 1.4162375009618700e-04</internalNodes>
      <leafValues>
        -5.8334779739379883e-01 3.4545856714248657e-01</leafValues></_>
    <_>
      <internalNodes>
        0 -1 140331 -1.3413662090897560e-02</internalNodes>
      <leafValues>
        3.1114864349365234e-01 -6.7492824792861938e-01</leafValues></_>
    <_>
      <internalNodes>
        0 -1 75400 7.6165180653333664e-03</internalNodes>
      <leafValues>
        -5.9215492010116577e-01 2.8368395566940308e-01</leafValues></_>
    <_>
      <internalNodes>
        0 -1 162215 -4.9834903329610825e-03</internalNodes>
      <leafValues>
        -1. 2.0452606678009033e-01</leafValues></_>
    <_>
      <internalNodes>
        0 -1 95657 5.3506991825997829e-03</internalNodes>
      <leafValues>
        -4.2889770865440369e-01 5.6013107299804688e-01</leafValues></_>
    <_>
      <internalNodes>
        0 -1 69831 -1.4265766367316246e-04</internalNodes>
      <leafValues>
        6.0222703218460083e-01 -3.4441184997558594e-01</leafValues></_></weakClassifiers></stage15>
</opencv_storage>
