<?xml version="1.0"?>
<opencv_storage>
<stage11>
  <maxWeakCount>5</maxWeakCount>
  <stageThreshold>-1.2714424133300781e+00</stageThreshold>
  <weakClassifiers>
    <_>
      <internalNodes>
        0 -1 98892 1.5416796668432653e-04</internalNodes>
      <leafValues>
        -7.8451180458068848e-01 1.6666667163372040e-01</leafValues></_>
    <_>
      <internalNodes>
        0 -1 105130 1.5823416411876678e-02</internalNodes>
      <leafValues>
        -5.0865101814270020e-01 4.9086254835128784e-01</leafValues></_>
    <_>
      <internalNodes>
        0 -1 120399 2.3161958903074265e-02</internalNodes>
      <leafValues>
        -2.9265069961547852e-01 8.0423766374588013e-01</leafValues></_>
    <_>
      <internalNodes>
        0 -1 154247 -1.6056993626989424e-04</internalNodes>
      <leafValues>
        6.8647497892379761e-01 -3.5836181044578552e-01</leafValues></_>
    <_>
      <internalNodes>
        0 -1 112552 -2.8850397095084190e-02</internalNodes>
      <leafValues>
        7.8741294145584106e-01 -2.7844560146331787e-01</leafValues></_></weakClassifiers></stage11>
</opencv_storage>
