<?xml version="1.0"?>
<opencv_storage>
<stage17>
  <maxWeakCount>6</maxWeakCount>
  <stageThreshold>-1.2644419670104980e+00</stageThreshold>
  <weakClassifiers>
    <_>
      <internalNodes>
        0 -1 5461 9.5391370356082916e-02</internalNodes>
      <leafValues>
        -6.2880885601043701e-01 5.5555558204650879e-01</leafValues></_>
    <_>
      <internalNodes>
        0 -1 153460 5.3866207599639893e-04</internalNodes>
      <leafValues>
        -7.0930260419845581e-01 2.0221772789955139e-01</leafValues></_>
    <_>
      <internalNodes>
        0 -1 60209 2.3323441855609417e-03</internalNodes>
      <leafValues>
        1.6559238731861115e-01 -8.3820360898971558e-01</leafValues></_>
    <_>
      <internalNodes>
        0 -1 158738 3.3396063372492790e-04</internalNodes>
      <leafValues>
        -4.9782028794288635e-01 3.7295305728912354e-01</leafValues></_>
    <_>
      <internalNodes>
        0 -1 38307 2.1081183149362914e-05</internalNodes>
      <leafValues>
        3.0255976319313049e-01 -6.7591005563735962e-01</leafValues></_>
    <_>
      <internalNodes>
        0 -1 45221 -9.5020532608032227e-03</internalNodes>
      <leafValues>
        -7.9828351736068726e-01 2.1103422343730927e-01</leafValues></_></weakClassifiers></stage17>
</opencv_storage>
