<?xml version="1.0"?>
<opencv_storage>
<cascade>
  <stageType>BOOST</stageType>
  <featureType>HAAR</featureType>
  <height>24</height>
  <width>24</width>
  <stageParams>
    <boostType>GAB</boostType>
    <minHitRate>9.9500000476837158e-01</minHitRate>
    <maxFalseAlarm>5.0000000000000000e-01</maxFalseAlarm>
    <weightTrimRate>9.4999998807907104e-01</weightTrimRate>
    <maxDepth>1</maxDepth>
    <maxWeakCount>100</maxWeakCount></stageParams>
  <featureParams>
    <maxCatCount>0</maxCatCount>
    <featSize>1</featSize>
    <mode>BASIC</mode></featureParams>
  <stageNum>20</stageNum>
  <stages>
    <!-- stage 0 -->
    <_>
      <maxWeakCount>6</maxWeakCount>
      <stageThreshold>-1.6964869499206543e+00</stageThreshold>
      <weakClassifiers>
        <_>
          <internalNodes>
            0 -1 162 -8.0733329057693481e-02</internalNodes>
          <leafValues>
            7.2093021869659424e-01 -8.4328359365463257e-01</leafValues></_>
        <_>
          <internalNodes>
            0 -1 174 -3.6451659980230033e-05</internalNodes>
          <leafValues>
            6.7414551973342896e-01 -6.4954274892807007e-01</leafValues></_>
        <_>
          <internalNodes>
            0 -1 199 1.6909772239159793e-04</internalNodes>
          <leafValues>
            -4.8078256845474243e-01 6.6974842548370361e-01</leafValues></_>
        <_>
          <internalNodes>
            0 -1 242 -1.2659737876674626e-05</internalNodes>
          <leafValues>
            6.7235726118087769e-01 -3.6729753017425537e-01</leafValues></_>
        <_>
          <internalNodes>
            0 -1 64 -7.5454801321029663e-02</internalNodes>
          <leafValues>
            -9.7173774242401123e-01 2.8361549973487854e-01</leafValues></_>
        <_>
          <internalNodes>
            0 -1 61 1.3151302933692932e-01</internalNodes>
          <leafValues>
            3.6080399155616760e-01 -9.6140623092651367e-01</leafValues></_></weakClassifiers></_>
    <!-- stage 1 -->
    <_>
      <maxWeakCount>11</maxWeakCount>
      <stageThreshold>-2.1008906364440918e+00</stageThreshold>
      <weakClassifiers>
        <_>
          <internalNodes>
            0 -1 101 -8.9791983366012573e-02</internalNodes>
          <leafValues>
            4.1333332657814026e-01 -8.9682537317276001e-01</leafValues></_>
        <_>
          <internalNodes>
            0 -1 185 2.6570056797936559e-04</internalNodes>
          <leafValues>
            -7.1277856826782227e-01 6.6416203975677490e-01</leafValues></_>
        <_>
          <internalNodes>
            0 -1 217 3.3813159912824631e-02</internalNodes>
          <leafValues>
            -6.2968647480010986e-01 6.5348154306411743e-01</leafValues></_>
        <_>
          <internalNodes>
            0 -1 269 -4.9901816964847967e-05</internalNodes>
          <leafValues>
            8.2319295406341553e-01 -2.2728069126605988e-01</leafValues></_>
        <_>
          <internalNodes>
            0 -1 121 3.0925741157261655e-05</internalNodes>
          <leafValues>
            3.3241155743598938e-01 -6.5173929929733276e-01</leafValues></_>
        <_>
          <internalNodes>
            0 -1 285 -4.9264234257861972e-04</internalNodes>
          <leafValues>
            9.2266893386840820e-01 -2.3363690078258514e-01</leafValues></_>
        <_>
          <internalNodes>
            0 -1 135 -2.2904230281710625e-03</internalNodes>
          <leafValues>
            -8.3884668350219727e-01 2.2994510829448700e-01</leafValues></_>
        <_>
          <internalNodes>
            0 -1 303 6.3525003497488797e-05</internalNodes>
          <leafValues>
            -1.8157552182674408e-01 9.3091660737991333e-01</leafValues></_>
        <_>
          <internalNodes>
            0 -1 318 9.0328598162159324e-04</internalNodes>
          <leafValues>
            1.9549788534641266e-01 -9.8937636613845825e-01</leafValues></_>
        <_>
          <internalNodes>
            0 -1 304 -1.4337972970679402e-04</internalNodes>
          <leafValues>
            9.7828781604766846e-01 -1.7317916452884674e-01</leafValues></_>
        <_>
          <internalNodes>
            0 -1 157 5.7703455240698531e-05</internalNodes>
          <leafValues>
            1.9621758162975311e-01 -6.7835724353790283e-01</leafValues></_></weakClassifiers></_>
    <!-- stage 2 -->
    <_>
      <maxWeakCount>7</maxWeakCount>
      <stageThreshold>-2.0086033344268799e+00</stageThreshold>
      <weakClassifiers>
        <_>
          <internalNodes>
            0 -1 193 -3.3135770354419947e-04</internalNodes>
          <leafValues>
            4.6835443377494812e-01 -9.1600000858306885e-01</leafValues></_>
        <_>
          <internalNodes>
            0 -1 216 -6.4508545619901270e-05</internalNodes>
          <leafValues>
            7.8085416555404663e-01 -6.9121056795120239e-01</leafValues></_>
        <_>
          <internalNodes>
            0 -1 261 7.4460893869400024e-02</internalNodes>
          <leafValues>
            -5.0316423177719116e-01 7.6411825418472290e-01</leafValues></_>
        <_>
          <internalNodes>
            0 -1 186 3.1985196983441710e-05</internalNodes>
          <leafValues>
            -3.0295547842979431e-01 8.7991988658905029e-01</leafValues></_>
        <_>
          <internalNodes>
            0 -1 134 2.9315691441297531e-02</internalNodes>
          <leafValues>
            2.8793612122535706e-01 -1.</leafValues></_>
        <_>
          <internalNodes>
            0 -1 265 -3.8815807783976197e-05</internalNodes>
          <leafValues>
            8.9555078744888306e-01 -2.5246223807334900e-01</leafValues></_>
        <_>
          <internalNodes>
            0 -1 132 1.0573231702437624e-04</internalNodes>
          <leafValues>
            3.6925312876701355e-01 -7.0108109712600708e-01</leafValues></_></weakClassifiers></_>
    <!-- stage 3 -->
    <_>
      <maxWeakCount>100</maxWeakCount>
      <stageThreshold>-2.2355668544769287e+00</stageThreshold>
      <weakClassifiers>
        <_>
          <internalNodes>
            0 -1 294 -3.6022709537064657e-05</internalNodes>
          <leafValues>
            7.1929824352264404e-01 -8.8505744934082031e-01</leafValues></_>
        <_>
          <internalNodes>
            0 -1 205 -4.0448055369779468e-04</internalNodes>
          <leafValues>
            6.7874217033386230e-01 -7.9632759094238281e-01</leafValues></_>
        <_>
          <internalNodes>
            0 -1 278 -4.1778694139793515e-04</internalNodes>
          <leafValues>
            8.4579890966415405e-01 -5.1311850547790527e-01</leafValues></_>
        <_>
          <internalNodes>
            0 -1 291 -2.2300909040495753e-04</internalNodes>
          <leafValues>
            8.4240764379501343e-01 -2.5837352871894836e-01</leafValues></_>
        <_>
          <internalNodes>
            0 -1 115 2.1436769515275955e-02</internalNodes>
          <leafValues>
            2.4938286840915680e-01 -9.8301523923873901e-01</leafValues></_>
        <_>
          <internalNodes>
            0 -1 296 -1.2150552720413543e-05</internalNodes>
          <leafValues>
            9.0113800764083862e-01 -2.3615100979804993e-01</leafValues></_>
        <_>
          <internalNodes>
            0 -1 274 4.7178650274872780e-03</internalNodes>
          <leafValues>
            1.9773977994918823e-01 -8.5155099630355835e-01</leafValues></_>
        <_>
          <internalNodes>
            0 -1 233 2.6586852618493140e-04</internalNodes>
          <leafValues>
            -1.8657635152339935e-01 7.6061612367630005e-01</leafValues></_>
        <_>
          <internalNodes>
            0 -1 227 5.4595232941210270e-03</internalNodes>
          <leafValues>
            1.4299814403057098e-01 -9.4823646545410156e-01</leafValues></_>
        <_>
          <internalNodes>
            0 -1 266 -6.3950006733648479e-05</internalNodes>
          <leafValues>
            8.6434924602508545e-01 -1.1542968451976776e-01</leafValues></_>
        <_>
          <internalNodes>
            0 -1 110 3.0802395194768906e-03</internalNodes>
          <leafValues>
            9.1474987566471100e-02 -1.</leafValues></_>
        <_>
          <internalNodes>
            0 -1 128 -2.3011171724647284e-03</internalNodes>
          <leafValues>
            -9.1597628593444824e-01 4.3703250586986542e-02</leafValues></_>
        <_>
          <internalNodes>
            0 -1 295 -7.6749929576180875e-05</internalNodes>
          <leafValues>
            9.6907520294189453e-01 -6.9949224591255188e-02</leafValues></_>
        <_>
          <internalNodes>
            0 -1 114 3.1391650438308716e-02</internalNodes>
          <leafValues>
            6.8336807191371918e-02 -9.3498861789703369e-01</leafValues></_>
        <_>
          <internalNodes>
            0 -1 211 6.0100207338109612e-04</internalNodes>
          <leafValues>
            -6.3534744083881378e-02 9.1557717323303223e-01</leafValues></_>
        <_>
          <internalNodes>
            0 -1 188 -6.3456785865128040e-03</internalNodes>
          <leafValues>
            -9.1089415550231934e-01 5.6512907147407532e-02</leafValues></_>
        <_>
          <internalNodes>
            0 -1 137 9.1803362593054771e-03</internalNodes>
          <leafValues>
            2.7957690879702568e-02 -8.8454478979110718e-01</leafValues></_>
        <_>
          <internalNodes>
            0 -1 267 3.0050103669054806e-04</internalNodes>
          <leafValues>
            -3.2242260873317719e-02 9.6643710136413574e-01</leafValues></_>
        <_>
          <internalNodes>
            0 -1 94 3.0307350243674591e-05</internalNodes>
          <leafValues>
            2.8710462152957916e-02 -9.2928695678710938e-01</leafValues></_>
        <_>
          <internalNodes>
            0 -1 252 -3.8476584450108930e-05</internalNodes>
          <leafValues>
            1. -2.2208275273442268e-02</leafValues></_>
        <_>
          <internalNodes>
            0 -1 171 -1.3744154784944840e-05</internalNodes>
          <leafValues>
            -7.9356002807617188e-01 3.3731583505868912e-02</leafValues></_>
        <_>
          <internalNodes>
            0 -1 239 2.0822235383093357e-03</internalNodes>
          <leafValues>
            -1.1707475408911705e-02 9.4939750432968140e-01</leafValues></_>
        <_>
          <internalNodes>
            0 -1 183 -5.5500364396721125e-04</internalNodes>
          <leafValues>
            -9.4193100929260254e-01 1.1984003707766533e-02</leafValues></_>
        <_>
          <internalNodes>
            0 -1 195 -8.2852231571450830e-04</internalNodes>
          <leafValues>
            1. -5.1138508133590221e-03</leafValues></_>
        <_>
          <internalNodes>
            0 -1 302 1.6770885849837214e-04</internalNodes>
          <leafValues>
            6.0225399211049080e-03 -9.4332605600357056e-01</leafValues></_>
        <_>
          <internalNodes>
            0 -1 176 -1.4283116615843028e-04</internalNodes>
          <leafValues>
            1. -2.6126506272703409e-03</leafValues></_>
        <_>
          <internalNodes>
            0 -1 103 -5.2217626944184303e-03</internalNodes>
          <leafValues>
            -1. 6.3964226283133030e-03</leafValues></_>
        <_>
          <internalNodes>
            0 -1 123 3.0751796439290047e-03</internalNodes>
          <leafValues>
            -2.3138860706239939e-03 1.</leafValues></_>
        <_>
          <internalNodes>
            0 -1 50 -8.8076964020729065e-03</internalNodes>
          <leafValues>
            -1. -2.5568730197846889e-03</leafValues></_>
        <_>
          <internalNodes>
            0 -1 45 -5.2698631770908833e-03</internalNodes>
          <leafValues>
            1. 2.9919897206127644e-03</leafValues></_>
        <_>
          <internalNodes>
            0 -1 43 -4.8625497147440910e-03</internalNodes>
          <leafValues>
            -1. -2.2277249954640865e-03</leafValues></_>
        <_>
          <internalNodes>
            0 -1 41 -1.1281096376478672e-03</internalNodes>
          <leafValues>
            1. 2.2277303505688906e-03</leafValues></_>
        <_>
          <internalNodes>
            0 -1 107 -1.8819728866219521e-03</internalNodes>
          <leafValues>
            -1. -1.1100211413577199e-03</leafValues></_>
        <_>
          <internalNodes>
            0 -1 105 -2.7156053110957146e-03</internalNodes>
          <leafValues>
            1. 8.7318877922371030e-04</leafValues></_>
        <_>
          <internalNodes>
            0 -1 104 -2.9487735591828823e-03</internalNodes>
          <leafValues>
            -1. 7.6643860666081309e-04</leafValues></_>
        <_>
          <internalNodes>
            0 -1 104 -3.0534486286342144e-03</internalNodes>
          <leafValues>
            1. -7.6643819920718670e-04</leafValues></_>
        <_>
          <internalNodes>
            0 -1 104 -2.9487735591828823e-03</internalNodes>
          <leafValues>
            -1. 7.6643819920718670e-04</leafValues></_>
        <_>
          <internalNodes>
            0 -1 104 -3.0534486286342144e-03</internalNodes>
          <leafValues>
            1. -7.6643819920718670e-04</leafValues></_>
        <_>
          <internalNodes>
            0 -1 104 -2.9487735591828823e-03</internalNodes>
          <leafValues>
            -1. 7.6643819920718670e-04</leafValues></_>
        <_>
          <internalNodes>
            0 -1 104 -3.0534486286342144e-03</internalNodes>
          <leafValues>
            1. -7.6643819920718670e-04</leafValues></_>
        <_>
          <internalNodes>
            0 -1 104 -2.9487735591828823e-03</internalNodes>
          <leafValues>
            -1. 7.6643819920718670e-04</leafValues></_>
        <_>
          <internalNodes>
            0 -1 104 -3.0534486286342144e-03</internalNodes>
          <leafValues>
            1. -7.6643819920718670e-04</leafValues></_>
        <_>
          <internalNodes>
            0 -1 104 -2.9487735591828823e-03</internalNodes>
          <leafValues>
            -1. 7.6643819920718670e-04</leafValues></_>
        <_>
          <internalNodes>
            0 -1 104 -3.0534486286342144e-03</internalNodes>
          <leafValues>
            1. -7.6643819920718670e-04</leafValues></_>
        <_>
          <internalNodes>
            0 -1 104 -2.9487735591828823e-03</internalNodes>
          <leafValues>
            -1. 7.6643819920718670e-04</leafValues></_>
        <_>
          <internalNodes>
            0 -1 104 -3.0534486286342144e-03</internalNodes>
          <leafValues>
            1. -7.6643819920718670e-04</leafValues></_>
        <_>
          <internalNodes>
            0 -1 104 -2.9487735591828823e-03</internalNodes>
          <leafValues>
            -1. 7.6643819920718670e-04</leafValues></_>
        <_>
          <internalNodes>
            0 -1 104 -3.0534486286342144e-03</internalNodes>
          <leafValues>
            1. -7.6643819920718670e-04</leafValues></_>
        <_>
          <internalNodes>
            0 -1 104 -2.9487735591828823e-03</internalNodes>
          <leafValues>
            -1. 7.6643819920718670e-04</leafValues></_>
        <_>
          <internalNodes>
            0 -1 104 -3.0534486286342144e-03</internalNodes>
          <leafValues>
            1. -7.6643819920718670e-04</leafValues></_>
        <_>
          <internalNodes>
            0 -1 104 -2.9487735591828823e-03</internalNodes>
          <leafValues>
            -1. 7.6643819920718670e-04</leafValues></_>
        <_>
          <internalNodes>
            0 -1 104 -3.0534486286342144e-03</internalNodes>
          <leafValues>
            1. -7.6643819920718670e-04</leafValues></_>
        <_>
          <internalNodes>
            0 -1 104 -2.9487735591828823e-03</internalNodes>
          <leafValues>
            -1. 7.6643819920718670e-04</leafValues></_>
        <_>
          <internalNodes>
            0 -1 104 -3.0534486286342144e-03</internalNodes>
          <leafValues>
            1. -7.6643819920718670e-04</leafValues></_>
        <_>
          <internalNodes>
            0 -1 104 -2.9487735591828823e-03</internalNodes>
          <leafValues>
            -1. 7.6643819920718670e-04</leafValues></_>
        <_>
          <internalNodes>
            0 -1 104 -3.0534486286342144e-03</internalNodes>
          <leafValues>
            1. -7.6643819920718670e-04</leafValues></_>
        <_>
          <internalNodes>
            0 -1 104 -2.9487735591828823e-03</internalNodes>
          <leafValues>
            -1. 7.6643819920718670e-04</leafValues></_>
        <_>
          <internalNodes>
            0 -1 104 -3.0534486286342144e-03</internalNodes>
          <leafValues>
            1. -7.6643819920718670e-04</leafValues></_>
        <_>
          <internalNodes>
            0 -1 104 -2.9487735591828823e-03</internalNodes>
          <leafValues>
            -1. 7.6643819920718670e-04</leafValues></_>
        <_>
          <internalNodes>
            0 -1 104 -3.0534486286342144e-03</internalNodes>
          <leafValues>
            1. -7.6643819920718670e-04</leafValues></_>
        <_>
          <internalNodes>
            0 -1 104 -2.9487735591828823e-03</internalNodes>
          <leafValues>
            -1. 7.6643819920718670e-04</leafValues></_>
        <_>
          <internalNodes>
            0 -1 104 -3.0534486286342144e-03</internalNodes>
          <leafValues>
            1. -7.6643819920718670e-04</leafValues></_>
        <_>
          <internalNodes>
            0 -1 104 -2.9487735591828823e-03</internalNodes>
          <leafValues>
            -1. 7.6643819920718670e-04</leafValues></_>
        <_>
          <internalNodes>
            0 -1 104 -3.0534486286342144e-03</internalNodes>
          <leafValues>
            1. -7.6643819920718670e-04</leafValues></_>
        <_>
          <internalNodes>
            0 -1 104 -2.9487735591828823e-03</internalNodes>
          <leafValues>
            -1. 7.6643819920718670e-04</leafValues></_>
        <_>
          <internalNodes>
            0 -1 104 -3.0534486286342144e-03</internalNodes>
          <leafValues>
            1. -7.6643819920718670e-04</leafValues></_>
        <_>
          <internalNodes>
            0 -1 104 -2.9487735591828823e-03</internalNodes>
          <leafValues>
            -1. 7.6643819920718670e-04</leafValues></_>
        <_>
          <internalNodes>
            0 -1 104 -3.0534486286342144e-03</internalNodes>
          <leafValues>
            1. -7.6643819920718670e-04</leafValues></_>
        <_>
          <internalNodes>
            0 -1 104 -2.9487735591828823e-03</internalNodes>
          <leafValues>
            -1. 7.6643819920718670e-04</leafValues></_>
        <_>
          <internalNodes>
            0 -1 104 -3.0534486286342144e-03</internalNodes>
          <leafValues>
            1. -7.6643819920718670e-04</leafValues></_>
        <_>
          <internalNodes>
            0 -1 104 -2.9487735591828823e-03</internalNodes>
          <leafValues>
            -1. 7.6643819920718670e-04</leafValues></_>
        <_>
          <internalNodes>
            0 -1 104 -3.0534486286342144e-03</internalNodes>
          <leafValues>
            1. -7.6643819920718670e-04</leafValues></_>
        <_>
          <internalNodes>
            0 -1 104 -2.9487735591828823e-03</internalNodes>
          <leafValues>
            -1. 7.6643819920718670e-04</leafValues></_>
        <_>
          <internalNodes>
            0 -1 104 -3.0534486286342144e-03</internalNodes>
          <leafValues>
            1. -7.6643819920718670e-04</leafValues></_>
        <_>
          <internalNodes>
            0 -1 104 -2.9487735591828823e-03</internalNodes>
          <leafValues>
            -1. 7.6643819920718670e-04</leafValues></_>
        <_>
          <internalNodes>
            0 -1 104 -3.0534486286342144e-03</internalNodes>
          <leafValues>
            1. -7.6643819920718670e-04</leafValues></_>
        <_>
          <internalNodes>
            0 -1 104 -2.9487735591828823e-03</internalNodes>
          <leafValues>
            -1. 7.6643819920718670e-04</leafValues></_>
        <_>
          <internalNodes>
            0 -1 104 -3.0534486286342144e-03</internalNodes>
          <leafValues>
            1. -7.6643819920718670e-04</leafValues></_>
        <_>
          <internalNodes>
            0 -1 104 -2.9487735591828823e-03</internalNodes>
          <leafValues>
            -1. 7.6643819920718670e-04</leafValues></_>
        <_>
          <internalNodes>
            0 -1 104 -3.0534486286342144e-03</internalNodes>
          <leafValues>
            1. -7.6643819920718670e-04</leafValues></_>
        <_>
          <internalNodes>
            0 -1 104 -2.9487735591828823e-03</internalNodes>
          <leafValues>
            -1. 7.6643819920718670e-04</leafValues></_>
        <_>
          <internalNodes>
            0 -1 104 -3.0534486286342144e-03</internalNodes>
          <leafValues>
            1. -7.6643819920718670e-04</leafValues></_>
        <_>
          <internalNodes>
            0 -1 104 -2.9487735591828823e-03</internalNodes>
          <leafValues>
            -1. 7.6643819920718670e-04</leafValues></_>
        <_>
          <internalNodes>
            0 -1 104 -3.0534486286342144e-03</internalNodes>
          <leafValues>
            1. -7.6643819920718670e-04</leafValues></_>
        <_>
          <internalNodes>
            0 -1 104 -2.9487735591828823e-03</internalNodes>
          <leafValues>
            -1. 7.6643819920718670e-04</leafValues></_>
        <_>
          <internalNodes>
            0 -1 104 -3.0534486286342144e-03</internalNodes>
          <leafValues>
            1. -7.6643819920718670e-04</leafValues></_>
        <_>
          <internalNodes>
            0 -1 104 -2.9487735591828823e-03</internalNodes>
          <leafValues>
            -1. 7.6643819920718670e-04</leafValues></_>
        <_>
          <internalNodes>
            0 -1 104 -3.0534486286342144e-03</internalNodes>
          <leafValues>
            1. -7.6643819920718670e-04</leafValues></_>
        <_>
          <internalNodes>
            0 -1 104 -2.9487735591828823e-03</internalNodes>
          <leafValues>
            -1. 7.6643819920718670e-04</leafValues></_>
        <_>
          <internalNodes>
            0 -1 104 -3.0534486286342144e-03</internalNodes>
          <leafValues>
            1. -7.6643819920718670e-04</leafValues></_>
        <_>
          <internalNodes>
            0 -1 104 -2.9487735591828823e-03</internalNodes>
          <leafValues>
            -1. 7.6643819920718670e-04</leafValues></_>
        <_>
          <internalNodes>
            0 -1 104 -3.0534486286342144e-03</internalNodes>
          <leafValues>
            1. -7.6643819920718670e-04</leafValues></_>
        <_>
          <internalNodes>
            0 -1 104 -2.9487735591828823e-03</internalNodes>
          <leafValues>
            -1. 7.6643819920718670e-04</leafValues></_>
        <_>
          <internalNodes>
            0 -1 104 -3.0534486286342144e-03</internalNodes>
          <leafValues>
            1. -7.6643819920718670e-04</leafValues></_>
        <_>
          <internalNodes>
            0 -1 104 -2.9487735591828823e-03</internalNodes>
          <leafValues>
            -1. 7.6643819920718670e-04</leafValues></_>
        <_>
          <internalNodes>
            0 -1 104 -3.0534486286342144e-03</internalNodes>
          <leafValues>
            1. -7.6643819920718670e-04</leafValues></_>
        <_>
          <internalNodes>
            0 -1 104 -2.9487735591828823e-03</internalNodes>
          <leafValues>
            -1. 7.6643819920718670e-04</leafValues></_>
        <_>
          <internalNodes>
            0 -1 104 -3.0534486286342144e-03</internalNodes>
          <leafValues>
            1. -7.6643819920718670e-04</leafValues></_>
        <_>
          <internalNodes>
            0 -1 104 -2.9487735591828823e-03</internalNodes>
          <leafValues>
            -1. 7.6643819920718670e-04</leafValues></_>
        <_>
          <internalNodes>
            0 -1 104 -3.0534486286342144e-03</internalNodes>
          <leafValues>
            1. -7.6643819920718670e-04</leafValues></_></weakClassifiers></_>
    <!-- stage 4 -->
    <_>
      <maxWeakCount>100</maxWeakCount>
      <stageThreshold>-2.5407021045684814e+00</stageThreshold>
      <weakClassifiers>
        <_>
          <internalNodes>
            0 -1 83 -3.9401765912771225e-02</internalNodes>
          <leafValues>
            8.9189189672470093e-01 -9.6435642242431641e-01</leafValues></_>
        <_>
          <internalNodes>
            0 -1 184 4.6647131966892630e-05</internalNodes>
          <leafValues>
            -8.2924658060073853e-01 9.7767627239227295e-01</leafValues></_>
        <_>
          <internalNodes>
            0 -1 215 -6.5777741838246584e-04</internalNodes>
          <leafValues>
            1. -5.8667832612991333e-01</leafValues></_>
        <_>
          <internalNodes>
            0 -1 170 7.9982425086200237e-04</internalNodes>
          <leafValues>
            -1.1878860741853714e-01 1.</leafValues></_>
        <_>
          <internalNodes>
            0 -1 301 3.5031865991186351e-05</internalNodes>
          <leafValues>
            -2.7195496484637260e-02 1.</leafValues></_>
        <_>
          <internalNodes>
            0 -1 192 6.0724793002009392e-04</internalNodes>
          <leafValues>
            -3.2848924398422241e-02 1.</leafValues></_>
        <_>
          <internalNodes>
            0 -1 298 1.1090508196502924e-03</internalNodes>
          <leafValues>
            -1.4841706492006779e-02 1.</leafValues></_>
        <_>
          <internalNodes>
            0 -1 86 -2.4103997930069454e-05</internalNodes>
          <leafValues>
            -9.1122502088546753e-01 3.9814375340938568e-02</leafValues></_>
        <_>
          <internalNodes>
            0 -1 160 -3.2394253648817539e-03</internalNodes>
          <leafValues>
            1. -1.7451170831918716e-02</leafValues></_>
        <_>
          <internalNodes>
            0 -1 214 2.3902802786324173e-04</internalNodes>
          <leafValues>
            1.5558829531073570e-02 -1.</leafValues></_>
        <_>
          <internalNodes>
            0 -1 166 -6.1824329895898700e-04</internalNodes>
          <leafValues>
            1. -6.8578333593904972e-03</leafValues></_>
        <_>
          <internalNodes>
            0 -1 89 -1.2071416713297367e-03</internalNodes>
          <leafValues>
            -1. 3.5816843155771494e-03</leafValues></_>
        <_>
          <internalNodes>
            0 -1 82 -4.1349269449710846e-03</internalNodes>
          <leafValues>
            1. -1.3919974444434047e-03</leafValues></_>
        <_>
          <internalNodes>
            0 -1 66 -4.8585496842861176e-03</internalNodes>
          <leafValues>
            -1. -8.9907103983932757e-10</leafValues></_>
        <_>
          <internalNodes>
            0 -1 46 -1.8011355132330209e-04</internalNodes>
          <leafValues>
            1. -7.0686847624150048e-15</leafValues></_>
        <_>
          <internalNodes>
            0 -1 29 1.2222601799294353e-04</internalNodes>
          <leafValues>
            6.2393636976042655e-15 -1.</leafValues></_>
        <_>
          <internalNodes>
            0 -1 29 3.9801368257030845e-04</internalNodes>
          <leafValues>
            1.8912272125421424e-15 1.</leafValues></_>
        <_>
          <internalNodes>
            0 -1 28 1.9668780732899904e-03</internalNodes>
          <leafValues>
            -9.0171510734008038e-15 -1.</leafValues></_>
        <_>
          <internalNodes>
            0 -1 27 5.6097753258654848e-05</internalNodes>
          <leafValues>
            4.5082634050593387e-15 1.</leafValues></_>
        <_>
          <internalNodes>
            0 -1 3 -6.1464939790312201e-05</internalNodes>
          <leafValues>
            -1. 2.8371701028714587e-15</leafValues></_>
        <_>
          <internalNodes>
            0 -1 3 -9.4470182375516742e-05</internalNodes>
          <leafValues>
            1. -7.1009135190250837e-15</leafValues></_>
        <_>
          <internalNodes>
            0 -1 3 -6.1464939790312201e-05</internalNodes>
          <leafValues>
            -1. 8.5280124162510212e-15</leafValues></_>
        <_>
          <internalNodes>
            0 -1 3 -4.1522296669427305e-05</internalNodes>
          <leafValues>
            1. -8.9785695696863177e-15</leafValues></_>
        <_>
          <internalNodes>
            0 -1 3 -6.1464939790312201e-05</internalNodes>
          <leafValues>
            -1. 8.9676479268644207e-15</leafValues></_>
        <_>
          <internalNodes>
            0 -1 3 -4.1522296669427305e-05</internalNodes>
          <leafValues>
            1. -5.4017997316673210e-15</leafValues></_>
        <_>
          <internalNodes>
            0 -1 3 -6.1464939790312201e-05</internalNodes>
          <leafValues>
            -1. -2.9726636106966247e-15</leafValues></_>
        <_>
          <internalNodes>
            0 -1 3 -4.1522296669427305e-05</internalNodes>
          <leafValues>
            1. -5.1287229533872146e-17</leafValues></_>
        <_>
          <internalNodes>
            0 -1 3 -6.1464939790312201e-05</internalNodes>
          <leafValues>
            -1. 1.7870341132168645e-15</leafValues></_>
        <_>
          <internalNodes>
            0 -1 3 -4.1522296669427305e-05</internalNodes>
          <leafValues>
            1. 8.0453273031263692e-15</leafValues></_>
        <_>
          <internalNodes>
            0 -1 3 -6.1464939790312201e-05</internalNodes>
          <leafValues>
            -1. -9.0367658153603717e-15</leafValues></_>
        <_>
          <internalNodes>
            0 -1 3 -4.1522296669427305e-05</internalNodes>
          <leafValues>
            1. 5.4746403299664546e-15</leafValues></_>
        <_>
          <internalNodes>
            0 -1 3 -6.1464939790312201e-05</internalNodes>
          <leafValues>
            -1. -4.8489735142464348e-15</leafValues></_>
        <_>
          <internalNodes>
            0 -1 3 -4.1522296669427305e-05</internalNodes>
          <leafValues>
            1. 1.4976529300839581e-15</leafValues></_>
        <_>
          <internalNodes>
            0 -1 3 -6.1464939790312201e-05</internalNodes>
          <leafValues>
            -1. 2.2478629175661587e-16</leafValues></_>
        <_>
          <internalNodes>
            0 -1 3 -4.1522296669427305e-05</internalNodes>
          <leafValues>
            1. 5.5263250098584911e-15</leafValues></_>
        <_>
          <internalNodes>
            0 -1 3 -6.1464939790312201e-05</internalNodes>
          <leafValues>
            -1. -7.8209270995750237e-15</leafValues></_>
        <_>
          <internalNodes>
            0 -1 3 -4.1522296669427305e-05</internalNodes>
          <leafValues>
            1. 5.0180273144747635e-15</leafValues></_>
        <_>
          <internalNodes>
            0 -1 3 -6.1464939790312201e-05</internalNodes>
          <leafValues>
            -1. 2.5400364506888073e-15</leafValues></_>
        <_>
          <internalNodes>
            0 -1 3 -4.1522296669427305e-05</internalNodes>
          <leafValues>
            1. -1.7354553124432348e-15</leafValues></_>
        <_>
          <internalNodes>
            0 -1 3 -6.1464939790312201e-05</internalNodes>
          <leafValues>
            -1. -4.1700736424067977e-15</leafValues></_>
        <_>
          <internalNodes>
            0 -1 3 -4.1522296669427305e-05</internalNodes>
          <leafValues>
            1. 2.2074409171364074e-15</leafValues></_>
        <_>
          <internalNodes>
            0 -1 3 -6.1464939790312201e-05</internalNodes>
          <leafValues>
            -1. 5.9900708897990106e-15</leafValues></_>
        <_>
          <internalNodes>
            0 -1 3 -4.1522296669427305e-05</internalNodes>
          <leafValues>
            1. -8.7784800587541179e-15</leafValues></_>
        <_>
          <internalNodes>
            0 -1 3 -6.1464939790312201e-05</internalNodes>
          <leafValues>
            -1. -2.4296782220569390e-15</leafValues></_>
        <_>
          <internalNodes>
            0 -1 3 -4.1522296669427305e-05</internalNodes>
          <leafValues>
            1. 1.4522636637537116e-16</leafValues></_>
        <_>
          <internalNodes>
            0 -1 3 -6.1464939790312201e-05</internalNodes>
          <leafValues>
            -1. 4.5807486730370991e-15</leafValues></_>
        <_>
          <internalNodes>
            0 -1 3 -4.1522296669427305e-05</internalNodes>
          <leafValues>
            1. 4.7266640742452820e-15</leafValues></_>
        <_>
          <internalNodes>
            0 -1 3 -6.1464939790312201e-05</internalNodes>
          <leafValues>
            -1. -8.1266678770511996e-15</leafValues></_>
        <_>
          <internalNodes>
            0 -1 3 -4.1522296669427305e-05</internalNodes>
          <leafValues>
            1. 2.4688479901532933e-16</leafValues></_>
        <_>
          <internalNodes>
            0 -1 3 -6.1464939790312201e-05</internalNodes>
          <leafValues>
            -1. 8.4884966351957136e-15</leafValues></_>
        <_>
          <internalNodes>
            0 -1 3 -4.1522296669427305e-05</internalNodes>
          <leafValues>
            1. -1.9060959759586852e-16</leafValues></_>
        <_>
          <internalNodes>
            0 -1 3 -6.1464939790312201e-05</internalNodes>
          <leafValues>
            -1. -1.1000038262264176e-14</leafValues></_>
        <_>
          <internalNodes>
            0 -1 3 -4.1522296669427305e-05</internalNodes>
          <leafValues>
            1. 1.9914163871257492e-15</leafValues></_>
        <_>
          <internalNodes>
            0 -1 3 -6.1464939790312201e-05</internalNodes>
          <leafValues>
            -1. 7.9023337420697400e-15</leafValues></_>
        <_>
          <internalNodes>
            0 -1 3 -4.1522296669427305e-05</internalNodes>
          <leafValues>
            1. -2.8105838562395144e-15</leafValues></_>
        <_>
          <internalNodes>
            0 -1 3 -6.1464939790312201e-05</internalNodes>
          <leafValues>
            -1. -1.6282281411008920e-15</leafValues></_>
        <_>
          <internalNodes>
            0 -1 3 -4.1522296669427305e-05</internalNodes>
          <leafValues>
            1. -1.8008068689392195e-15</leafValues></_>
        <_>
          <internalNodes>
            0 -1 3 -6.1464939790312201e-05</internalNodes>
          <leafValues>
            -1. -8.1728006794904579e-16</leafValues></_>
        <_>
          <internalNodes>
            0 -1 3 -4.1522296669427305e-05</internalNodes>
          <leafValues>
            1. -5.9588190798144712e-16</leafValues></_>
        <_>
          <internalNodes>
            0 -1 3 -6.1464939790312201e-05</internalNodes>
          <leafValues>
            -1. 8.2709472341217609e-15</leafValues></_>
        <_>
          <internalNodes>
            0 -1 3 -4.1522296669427305e-05</internalNodes>
          <leafValues>
            1. -5.9393043936217978e-15</leafValues></_>
        <_>
          <internalNodes>
            0 -1 3 -6.1464939790312201e-05</internalNodes>
          <leafValues>
            -1. 6.5418590683430367e-15</leafValues></_>
        <_>
          <internalNodes>
            0 -1 3 -4.1522296669427305e-05</internalNodes>
          <leafValues>
            1. -5.8798519980869657e-15</leafValues></_>
        <_>
          <internalNodes>
            0 -1 3 -6.1464939790312201e-05</internalNodes>
          <leafValues>
            -1. 6.1926942997929217e-15</leafValues></_>
        <_>
          <internalNodes>
            0 -1 3 -4.1522296669427305e-05</internalNodes>
          <leafValues>
            1. -7.1669211025387168e-15</leafValues></_>
        <_>
          <internalNodes>
            0 -1 3 -6.1464939790312201e-05</internalNodes>
          <leafValues>
            -1. 6.4333105256029772e-15</leafValues></_>
        <_>
          <internalNodes>
            0 -1 3 -4.1522296669427305e-05</internalNodes>
          <leafValues>
            1. 3.8530369394251568e-16</leafValues></_>
        <_>
          <internalNodes>
            0 -1 3 -6.1464939790312201e-05</internalNodes>
          <leafValues>
            -1. -1.8507525901905429e-15</leafValues></_>
        <_>
          <internalNodes>
            0 -1 3 -4.1522296669427305e-05</internalNodes>
          <leafValues>
            1. 5.3007618300705654e-16</leafValues></_>
        <_>
          <internalNodes>
            0 -1 3 -6.1464939790312201e-05</internalNodes>
          <leafValues>
            -1. -5.8760945599329456e-15</leafValues></_>
        <_>
          <internalNodes>
            0 -1 3 -4.1522296669427305e-05</internalNodes>
          <leafValues>
            1. 1.7431700885268270e-15</leafValues></_>
        <_>
          <internalNodes>
            0 -1 3 -6.1464939790312201e-05</internalNodes>
          <leafValues>
            -1. 6.4260738996181101e-15</leafValues></_>
        <_>
          <internalNodes>
            0 -1 3 -4.1522296669427305e-05</internalNodes>
          <leafValues>
            1. -9.2214198448947564e-15</leafValues></_>
        <_>
          <internalNodes>
            0 -1 3 -6.1464939790312201e-05</internalNodes>
          <leafValues>
            -1. 7.2148597792215212e-15</leafValues></_>
        <_>
          <internalNodes>
            0 -1 3 -4.1522296669427305e-05</internalNodes>
          <leafValues>
            1. -7.0725235157319613e-15</leafValues></_>
        <_>
          <internalNodes>
            0 -1 3 -6.1464939790312201e-05</internalNodes>
          <leafValues>
            -1. 8.3369802286238116e-15</leafValues></_>
        <_>
          <internalNodes>
            0 -1 3 -4.1522296669427305e-05</internalNodes>
          <leafValues>
            1. -7.0294095387167174e-15</leafValues></_>
        <_>
          <internalNodes>
            0 -1 3 -6.1464939790312201e-05</internalNodes>
          <leafValues>
            -1. 8.0470654147341350e-15</leafValues></_>
        <_>
          <internalNodes>
            0 -1 3 -4.1522296669427305e-05</internalNodes>
          <leafValues>
            1. -6.5079561511127097e-15</leafValues></_>
        <_>
          <internalNodes>
            0 -1 3 -6.1464939790312201e-05</internalNodes>
          <leafValues>
            -1. -5.0384615608107999e-15</leafValues></_>
        <_>
          <internalNodes>
            0 -1 3 -4.1522296669427305e-05</internalNodes>
          <leafValues>
            1. 2.9172344099030138e-15</leafValues></_>
        <_>
          <internalNodes>
            0 -1 3 -6.1464939790312201e-05</internalNodes>
          <leafValues>
            -1. 8.2935613197475562e-15</leafValues></_>
        <_>
          <internalNodes>
            0 -1 3 -4.1522296669427305e-05</internalNodes>
          <leafValues>
            1. -6.3323230224665832e-15</leafValues></_>
        <_>
          <internalNodes>
            0 -1 3 -6.1464939790312201e-05</internalNodes>
          <leafValues>
            -1. -4.8647838077234100e-15</leafValues></_>
        <_>
          <internalNodes>
            0 -1 3 -4.1522296669427305e-05</internalNodes>
          <leafValues>
            1. 2.9703327877840177e-15</leafValues></_>
        <_>
          <internalNodes>
            0 -1 3 -6.1464939790312201e-05</internalNodes>
          <leafValues>
            -1. 8.3365279130299778e-15</leafValues></_>
        <_>
          <internalNodes>
            0 -1 3 -4.1522296669427305e-05</internalNodes>
          <leafValues>
            1. -6.3336846279292945e-15</leafValues></_>
        <_>
          <internalNodes>
            0 -1 3 -6.1464939790312201e-05</internalNodes>
          <leafValues>
            -1. -4.8697592792555817e-15</leafValues></_>
        <_>
          <internalNodes>
            0 -1 3 -4.1522296669427305e-05</internalNodes>
          <leafValues>
            1. 2.9553563982436144e-15</leafValues></_>
        <_>
          <internalNodes>
            0 -1 3 -6.1464939790312201e-05</internalNodes>
          <leafValues>
            -1. 8.3360755974361440e-15</leafValues></_>
        <_>
          <internalNodes>
            0 -1 3 -4.1522296669427305e-05</internalNodes>
          <leafValues>
            1. -6.3386766166039377e-15</leafValues></_>
        <_>
          <internalNodes>
            0 -1 3 -6.1464939790312201e-05</internalNodes>
          <leafValues>
            -1. -4.9855440244640347e-15</leafValues></_>
        <_>
          <internalNodes>
            0 -1 3 -4.1522296669427305e-05</internalNodes>
          <leafValues>
            1. 2.9122424212283705e-15</leafValues></_>
        <_>
          <internalNodes>
            0 -1 3 -6.1464939790312201e-05</internalNodes>
          <leafValues>
            -1. 8.2786357521839882e-15</leafValues></_>
        <_>
          <internalNodes>
            0 -1 3 -4.1522296669427305e-05</internalNodes>
          <leafValues>
            1. -6.3904138125387040e-15</leafValues></_>
        <_>
          <internalNodes>
            0 -1 3 -6.1464939790312201e-05</internalNodes>
          <leafValues>
            -1. -4.9805689764483366e-15</leafValues></_>
        <_>
          <internalNodes>
            0 -1 3 -4.1522296669427305e-05</internalNodes>
          <leafValues>
            1. 2.9703327877840177e-15</leafValues></_>
        <_>
          <internalNodes>
            0 -1 3 -6.1464939790312201e-05</internalNodes>
          <leafValues>
            -1. 8.3365279130299778e-15</leafValues></_>
        <_>
          <internalNodes>
            0 -1 3 -4.1522296669427305e-05</internalNodes>
          <leafValues>
            1. -6.3336846279292945e-15</leafValues></_>
        <_>
          <internalNodes>
            0 -1 3 -6.1464939790312201e-05</internalNodes>
          <leafValues>
            -1. -4.9805689764483366e-15</leafValues></_></weakClassifiers></_>
    <!-- stage 5 -->
    <_>
      <maxWeakCount>100</maxWeakCount>
      <stageThreshold>-2.5163071155548096e+00</stageThreshold>
      <weakClassifiers>
        <_>
          <internalNodes>
            0 -1 289 4.7484515234827995e-03</internalNodes>
          <leafValues>
            -9.5634919404983521e-01 8.1333333253860474e-01</leafValues></_>
        <_>
          <internalNodes>
            0 -1 54 -5.9986039996147156e-03</internalNodes>
          <leafValues>
            9.7842389345169067e-01 -7.9390370845794678e-01</leafValues></_>
        <_>
          <internalNodes>
            0 -1 118 -1.0149745503440499e-03</internalNodes>
          <leafValues>
            9.5678132772445679e-01 -5.6245052814483643e-01</leafValues></_>
        <_>
          <internalNodes>
            0 -1 244 2.3921162937767804e-04</internalNodes>
          <leafValues>
            -2.1744647622108459e-01 9.9136704206466675e-01</leafValues></_>
        <_>
          <internalNodes>
            0 -1 223 -6.5843947231769562e-04</internalNodes>
          <leafValues>
            9.7222250699996948e-01 -3.8076981902122498e-02</leafValues></_>
        <_>
          <internalNodes>
            0 -1 272 -4.5135620166547596e-04</internalNodes>
          <leafValues>
            1. -9.4386637210845947e-03</leafValues></_>
        <_>
          <internalNodes>
            0 -1 147 -3.3939570188522339e-02</internalNodes>
          <leafValues>
            -9.1264289617538452e-01 7.3957942426204681e-02</leafValues></_>
        <_>
          <internalNodes>
            0 -1 313 3.9487709727836773e-05</internalNodes>
          <leafValues>
            -6.1993494629859924e-02 1.</leafValues></_>
        <_>
          <internalNodes>
            0 -1 276 1.7121416021836922e-05</internalNodes>
          <leafValues>
            5.6155752390623093e-02 -8.9542096853256226e-01</leafValues></_>
        <_>
          <internalNodes>
            0 -1 201 -4.3600780190899968e-04</internalNodes>
          <leafValues>
            1. -2.7194885537028313e-02</leafValues></_>
        <_>
          <internalNodes>
            0 -1 283 -1.8996765720658004e-04</internalNodes>
          <leafValues>
            -1. 2.5985762476921082e-02</leafValues></_>
        <_>
          <internalNodes>
            0 -1 280 -1.6254901129286736e-04</internalNodes>
          <leafValues>
            1. -1.0852829553186893e-02</leafValues></_>
        <_>
          <internalNodes>
            0 -1 231 -9.6813018899410963e-05</internalNodes>
          <leafValues>
            -1. 6.8013854324817657e-03</leafValues></_>
        <_>
          <internalNodes>
            0 -1 95 -1.8306273967027664e-02</internalNodes>
          <leafValues>
            1. -1.2833088403567672e-03</leafValues></_>
        <_>
          <internalNodes>
            0 -1 87 -8.2596176071092486e-04</internalNodes>
          <leafValues>
            -1. 1.1513690697029233e-03</leafValues></_>
        <_>
          <internalNodes>
            0 -1 98 -9.8509735835250467e-05</internalNodes>
          <leafValues>
            1. -1.1661985627142712e-04</leafValues></_>
        <_>
          <internalNodes>
            0 -1 96 -9.6853371360339224e-05</internalNodes>
          <leafValues>
            -1. -5.2657666638547540e-13</leafValues></_>
        <_>
          <internalNodes>
            0 -1 48 -7.5359945185482502e-03</internalNodes>
          <leafValues>
            1. -1.2526628561317921e-03</leafValues></_>
        <_>
          <internalNodes>
            0 -1 36 -3.3239654731005430e-03</internalNodes>
          <leafValues>
            -1. -6.5520405767571788e-10</leafValues></_>
        <_>
          <internalNodes>
            0 -1 33 -5.1121425349265337e-04</internalNodes>
          <leafValues>
            1. 4.2102983900389572e-15</leafValues></_>
        <_>
          <internalNodes>
            0 -1 19 -2.4213342840084806e-05</internalNodes>
          <leafValues>
            -1. -2.8143679759313730e-15</leafValues></_>
        <_>
          <internalNodes>
            0 -1 19 -1.8196329619968310e-05</internalNodes>
          <leafValues>
            1. -1.0191677239491481e-15</leafValues></_>
        <_>
          <internalNodes>
            0 -1 19 -2.4213342840084806e-05</internalNodes>
          <leafValues>
            -1. -3.0013858626633076e-15</leafValues></_>
        <_>
          <internalNodes>
            0 -1 19 -1.8196329619968310e-05</internalNodes>
          <leafValues>
            1. 3.3147105496327250e-15</leafValues></_>
        <_>
          <internalNodes>
            0 -1 19 -2.4213342840084806e-05</internalNodes>
          <leafValues>
            -1. -4.2559068790838650e-15</leafValues></_>
        <_>
          <internalNodes>
            0 -1 19 -1.8196329619968310e-05</internalNodes>
          <leafValues>
            1. 3.1256009150375458e-15</leafValues></_>
        <_>
          <internalNodes>
            0 -1 19 -2.4213342840084806e-05</internalNodes>
          <leafValues>
            -1. -4.0097349641727686e-15</leafValues></_>
        <_>
          <internalNodes>
            0 -1 19 -1.8196329619968310e-05</internalNodes>
          <leafValues>
            1. 3.3243730779785284e-15</leafValues></_>
        <_>
          <internalNodes>
            0 -1 19 -2.4213342840084806e-05</internalNodes>
          <leafValues>
            -1. -4.0989211807715420e-15</leafValues></_>
        <_>
          <internalNodes>
            0 -1 19 -1.8196329619968310e-05</internalNodes>
          <leafValues>
            1. 3.2907844099716328e-15</leafValues></_>
        <_>
          <internalNodes>
            0 -1 19 -2.4213342840084806e-05</internalNodes>
          <leafValues>
            -1. -3.3130821287916286e-15</leafValues></_>
        <_>
          <internalNodes>
            0 -1 19 -1.8196329619968310e-05</internalNodes>
          <leafValues>
            1. 3.1145579347459547e-15</leafValues></_>
        <_>
          <internalNodes>
            0 -1 19 -2.4213342840084806e-05</internalNodes>
          <leafValues>
            -1. -3.3158123277388660e-15</leafValues></_>
        <_>
          <internalNodes>
            0 -1 19 -1.8196329619968310e-05</internalNodes>
          <leafValues>
            1. 3.0621043606960481e-15</leafValues></_>
        <_>
          <internalNodes>
            0 -1 19 -2.4213342840084806e-05</internalNodes>
          <leafValues>
            -1. -3.3144471223861289e-15</leafValues></_>
        <_>
          <internalNodes>
            0 -1 19 -1.8196329619968310e-05</internalNodes>
          <leafValues>
            1. 3.0625642995864072e-15</leafValues></_>
        <_>
          <internalNodes>
            0 -1 19 -2.4213342840084806e-05</internalNodes>
          <leafValues>
            -1. -3.3094417929425664e-15</leafValues></_>
        <_>
          <internalNodes>
            0 -1 19 -1.8196329619968310e-05</internalNodes>
          <leafValues>
            1. 3.0630244502350031e-15</leafValues></_>
        <_>
          <internalNodes>
            0 -1 19 -2.4213342840084806e-05</internalNodes>
          <leafValues>
            -1. -3.2944258046118790e-15</leafValues></_>
        <_>
          <internalNodes>
            0 -1 19 -1.8196329619968310e-05</internalNodes>
          <leafValues>
            1. 3.0644049021807908e-15</leafValues></_>
        <_>
          <internalNodes>
            0 -1 19 -2.4213342840084806e-05</internalNodes>
          <leafValues>
            -1. -3.2939707361609666e-15</leafValues></_>
        <_>
          <internalNodes>
            0 -1 19 -1.8196329619968310e-05</internalNodes>
          <leafValues>
            1. 3.0694661357988720e-15</leafValues></_>
        <_>
          <internalNodes>
            0 -1 19 -2.4213342840084806e-05</internalNodes>
          <leafValues>
            -1. -3.2889654067174041e-15</leafValues></_>
        <_>
          <internalNodes>
            0 -1 19 -1.8196329619968310e-05</internalNodes>
          <leafValues>
            1. 3.0699262864474679e-15</leafValues></_>
        <_>
          <internalNodes>
            0 -1 19 -2.4213342840084806e-05</internalNodes>
          <leafValues>
            -1. -3.2876004131229038e-15</leafValues></_>
        <_>
          <internalNodes>
            0 -1 19 -1.8196329619968310e-05</internalNodes>
          <leafValues>
            1. 3.0851101990599485e-15</leafValues></_>
        <_>
          <internalNodes>
            0 -1 19 -2.4213342840084806e-05</internalNodes>
          <leafValues>
            -1. -3.0687302759259448e-15</leafValues></_>
        <_>
          <internalNodes>
            0 -1 19 -1.8196329619968310e-05</internalNodes>
          <leafValues>
            1. 2.9673192563159237e-15</leafValues></_>
        <_>
          <internalNodes>
            0 -1 19 -2.4213342840084806e-05</internalNodes>
          <leafValues>
            -1. -3.0669102138805322e-15</leafValues></_>
        <_>
          <internalNodes>
            0 -1 19 -1.8196329619968310e-05</internalNodes>
          <leafValues>
            1. 2.9737611536380295e-15</leafValues></_>
        <_>
          <internalNodes>
            0 -1 19 -2.4213342840084806e-05</internalNodes>
          <leafValues>
            -1. -3.0614498159860573e-15</leafValues></_>
        <_>
          <internalNodes>
            0 -1 19 -1.8196329619968310e-05</internalNodes>
          <leafValues>
            1. 3.0298957211184665e-15</leafValues></_>
        <_>
          <internalNodes>
            0 -1 19 -2.4213342840084806e-05</internalNodes>
          <leafValues>
            -1. -3.0464338276553699e-15</leafValues></_>
        <_>
          <internalNodes>
            0 -1 19 -1.8196329619968310e-05</internalNodes>
          <leafValues>
            1. 3.0298957211184665e-15</leafValues></_>
        <_>
          <internalNodes>
            0 -1 19 -2.4213342840084806e-05</internalNodes>
          <leafValues>
            -1. -3.0464338276553699e-15</leafValues></_>
        <_>
          <internalNodes>
            0 -1 19 -1.8196329619968310e-05</internalNodes>
          <leafValues>
            1. 3.0298957211184665e-15</leafValues></_>
        <_>
          <internalNodes>
            0 -1 19 -2.4213342840084806e-05</internalNodes>
          <leafValues>
            -1. -3.0464338276553699e-15</leafValues></_>
        <_>
          <internalNodes>
            0 -1 19 -1.8196329619968310e-05</internalNodes>
          <leafValues>
            1. 3.0298957211184665e-15</leafValues></_>
        <_>
          <internalNodes>
            0 -1 19 -2.4213342840084806e-05</internalNodes>
          <leafValues>
            -1. -3.0464338276553699e-15</leafValues></_>
        <_>
          <internalNodes>
            0 -1 19 -1.8196329619968310e-05</internalNodes>
          <leafValues>
            1. 3.0298957211184665e-15</leafValues></_>
        <_>
          <internalNodes>
            0 -1 19 -2.4213342840084806e-05</internalNodes>
          <leafValues>
            -1. -3.0464338276553699e-15</leafValues></_>
        <_>
          <internalNodes>
            0 -1 19 -1.8196329619968310e-05</internalNodes>
          <leafValues>
            1. 3.0298957211184665e-15</leafValues></_>
        <_>
          <internalNodes>
            0 -1 19 -2.4213342840084806e-05</internalNodes>
          <leafValues>
            -1. -3.0464338276553699e-15</leafValues></_>
        <_>
          <internalNodes>
            0 -1 19 -1.8196329619968310e-05</internalNodes>
          <leafValues>
            1. 3.0298957211184665e-15</leafValues></_>
        <_>
          <internalNodes>
            0 -1 19 -2.4213342840084806e-05</internalNodes>
          <leafValues>
            -1. -3.0464338276553699e-15</leafValues></_>
        <_>
          <internalNodes>
            0 -1 19 -1.8196329619968310e-05</internalNodes>
          <leafValues>
            1. 3.0298957211184665e-15</leafValues></_>
        <_>
          <internalNodes>
            0 -1 19 -2.4213342840084806e-05</internalNodes>
          <leafValues>
            -1. -3.0464338276553699e-15</leafValues></_>
        <_>
          <internalNodes>
            0 -1 19 -1.8196329619968310e-05</internalNodes>
          <leafValues>
            1. 3.0298957211184665e-15</leafValues></_>
        <_>
          <internalNodes>
            0 -1 19 -2.4213342840084806e-05</internalNodes>
          <leafValues>
            -1. -3.0464338276553699e-15</leafValues></_>
        <_>
          <internalNodes>
            0 -1 19 -1.8196329619968310e-05</internalNodes>
          <leafValues>
            1. 3.0298957211184665e-15</leafValues></_>
        <_>
          <internalNodes>
            0 -1 19 -2.4213342840084806e-05</internalNodes>
          <leafValues>
            -1. -3.0464338276553699e-15</leafValues></_>
        <_>
          <internalNodes>
            0 -1 19 -1.8196329619968310e-05</internalNodes>
          <leafValues>
            1. 3.0298957211184665e-15</leafValues></_>
        <_>
          <internalNodes>
            0 -1 19 -2.4213342840084806e-05</internalNodes>
          <leafValues>
            -1. -3.0464338276553699e-15</leafValues></_>
        <_>
          <internalNodes>
            0 -1 19 -1.8196329619968310e-05</internalNodes>
          <leafValues>
            1. 3.0298957211184665e-15</leafValues></_>
        <_>
          <internalNodes>
            0 -1 19 -2.4213342840084806e-05</internalNodes>
          <leafValues>
            -1. -3.0464338276553699e-15</leafValues></_>
        <_>
          <internalNodes>
            0 -1 19 -1.8196329619968310e-05</internalNodes>
          <leafValues>
            1. 3.0298957211184665e-15</leafValues></_>
        <_>
          <internalNodes>
            0 -1 19 -2.4213342840084806e-05</internalNodes>
          <leafValues>
            -1. -3.0464338276553699e-15</leafValues></_>
        <_>
          <internalNodes>
            0 -1 19 -1.8196329619968310e-05</internalNodes>
          <leafValues>
            1. 3.0298957211184665e-15</leafValues></_>
        <_>
          <internalNodes>
            0 -1 19 -2.4213342840084806e-05</internalNodes>
          <leafValues>
            -1. -3.0464338276553699e-15</leafValues></_>
        <_>
          <internalNodes>
            0 -1 19 -1.8196329619968310e-05</internalNodes>
          <leafValues>
            1. 3.0298957211184665e-15</leafValues></_>
        <_>
          <internalNodes>
            0 -1 19 -2.4213342840084806e-05</internalNodes>
          <leafValues>
            -1. -3.0464338276553699e-15</leafValues></_>
        <_>
          <internalNodes>
            0 -1 19 -1.8196329619968310e-05</internalNodes>
          <leafValues>
            1. 3.0298957211184665e-15</leafValues></_>
        <_>
          <internalNodes>
            0 -1 19 -2.4213342840084806e-05</internalNodes>
          <leafValues>
            -1. -3.0464338276553699e-15</leafValues></_>
        <_>
          <internalNodes>
            0 -1 19 -1.8196329619968310e-05</internalNodes>
          <leafValues>
            1. 3.0298957211184665e-15</leafValues></_>
        <_>
          <internalNodes>
            0 -1 19 -2.4213342840084806e-05</internalNodes>
          <leafValues>
            -1. -3.0464338276553699e-15</leafValues></_>
        <_>
          <internalNodes>
            0 -1 19 -1.8196329619968310e-05</internalNodes>
          <leafValues>
            1. 3.0298957211184665e-15</leafValues></_>
        <_>
          <internalNodes>
            0 -1 19 -2.4213342840084806e-05</internalNodes>
          <leafValues>
            -1. -3.0464338276553699e-15</leafValues></_>
        <_>
          <internalNodes>
            0 -1 19 -1.8196329619968310e-05</internalNodes>
          <leafValues>
            1. 3.0298957211184665e-15</leafValues></_>
        <_>
          <internalNodes>
            0 -1 19 -2.4213342840084806e-05</internalNodes>
          <leafValues>
            -1. -3.0464338276553699e-15</leafValues></_>
        <_>
          <internalNodes>
            0 -1 19 -1.8196329619968310e-05</internalNodes>
          <leafValues>
            1. 3.0298957211184665e-15</leafValues></_>
        <_>
          <internalNodes>
            0 -1 19 -2.4213342840084806e-05</internalNodes>
          <leafValues>
            -1. -3.0464338276553699e-15</leafValues></_>
        <_>
          <internalNodes>
            0 -1 19 -1.8196329619968310e-05</internalNodes>
          <leafValues>
            1. 3.0298957211184665e-15</leafValues></_>
        <_>
          <internalNodes>
            0 -1 19 -2.4213342840084806e-05</internalNodes>
          <leafValues>
            -1. -3.0464338276553699e-15</leafValues></_>
        <_>
          <internalNodes>
            0 -1 19 -1.8196329619968310e-05</internalNodes>
          <leafValues>
            1. 3.0298957211184665e-15</leafValues></_>
        <_>
          <internalNodes>
            0 -1 19 -2.4213342840084806e-05</internalNodes>
          <leafValues>
            -1. -3.0464338276553699e-15</leafValues></_>
        <_>
          <internalNodes>
            0 -1 19 -1.8196329619968310e-05</internalNodes>
          <leafValues>
            1. 3.0298957211184665e-15</leafValues></_>
        <_>
          <internalNodes>
            0 -1 19 -2.4213342840084806e-05</internalNodes>
          <leafValues>
            -1. -3.0464338276553699e-15</leafValues></_>
        <_>
          <internalNodes>
            0 -1 19 -1.8196329619968310e-05</internalNodes>
          <leafValues>
            1. 3.0298957211184665e-15</leafValues></_>
        <_>
          <internalNodes>
            0 -1 19 -2.4213342840084806e-05</internalNodes>
          <leafValues>
            -1. -3.0464338276553699e-15</leafValues></_>
        <_>
          <internalNodes>
            0 -1 19 -1.8196329619968310e-05</internalNodes>
          <leafValues>
            1. 3.0298957211184665e-15</leafValues></_></weakClassifiers></_>
    <!-- stage 6 -->
    <_>
      <maxWeakCount>100</maxWeakCount>
      <stageThreshold>-2.4526374340057373e+00</stageThreshold>
      <weakClassifiers>
        <_>
          <internalNodes>
            0 -1 111 -6.5066330134868622e-02</internalNodes>
          <leafValues>
            3.9784947037696838e-01 -9.4238680601119995e-01</leafValues></_>
        <_>
          <internalNodes>
            0 -1 125 1.1972199426963925e-03</internalNodes>
          <leafValues>
            -7.7292692661285400e-01 4.0969261527061462e-01</leafValues></_>
        <_>
          <internalNodes>
            0 -1 297 6.6320793703198433e-03</internalNodes>
          <leafValues>
            -4.8095649480819702e-01 7.0173317193984985e-01</leafValues></_>
        <_>
          <internalNodes>
            0 -1 275 -9.5671415328979492e-03</internalNodes>
          <leafValues>
            8.3086472749710083e-01 -2.2091314196586609e-01</leafValues></_>
        <_>
          <internalNodes>
            0 -1 286 -1.2992528267204762e-02</internalNodes>
          <leafValues>
            7.9135203361511230e-01 -1.5989528596401215e-01</leafValues></_>
        <_>
          <internalNodes>
            0 -1 113 -7.5512360781431198e-03</internalNodes>
          <leafValues>
            -9.2191237211227417e-01 2.0641544461250305e-01</leafValues></_>
        <_>
          <internalNodes>
            0 -1 59 4.9062266945838928e-02</internalNodes>
          <leafValues>
            8.7619371712207794e-02 -1.</leafValues></_>
        <_>
          <internalNodes>
            0 -1 264 -2.1716547780670226e-04</internalNodes>
          <leafValues>
            7.4349838495254517e-01 -1.8725216388702393e-01</leafValues></_>
        <_>
          <internalNodes>
            0 -1 316 -4.2947118345182389e-05</internalNodes>
          <leafValues>
            -9.4990509748458862e-01 1.1979616433382034e-01</leafValues></_>
        <_>
          <internalNodes>
            0 -1 312 2.4857206153683364e-04</internalNodes>
          <leafValues>
            -1.5883992612361908e-01 7.8006547689437866e-01</leafValues></_>
        <_>
          <internalNodes>
            0 -1 317 2.2364263713825494e-05</internalNodes>
          <leafValues>
            1.0195907950401306e-01 -9.2642807960510254e-01</leafValues></_>
        <_>
          <internalNodes>
            0 -1 178 -3.5627167671918869e-03</internalNodes>
          <leafValues>
            8.0359762907028198e-01 -1.0715989023447037e-01</leafValues></_>
        <_>
          <internalNodes>
            0 -1 126 -4.5077307149767876e-03</internalNodes>
          <leafValues>
            -9.6495425701141357e-01 7.7408589422702789e-02</leafValues></_>
        <_>
          <internalNodes>
            0 -1 308 -2.2983141243457794e-03</internalNodes>
          <leafValues>
            9.6004688739776611e-01 -5.9996467083692551e-02</leafValues></_>
        <_>
          <internalNodes>
            0 -1 108 -8.5097579285502434e-03</internalNodes>
          <leafValues>
            -9.4140106439590454e-01 6.1486557126045227e-02</leafValues></_>
        <_>
          <internalNodes>
            0 -1 112 2.1373241906985641e-05</internalNodes>
          <leafValues>
            -5.6251544505357742e-02 8.2744455337524414e-01</leafValues></_>
        <_>
          <internalNodes>
            0 -1 150 2.2776903642807156e-04</internalNodes>
          <leafValues>
            3.4486897289752960e-02 -1.</leafValues></_>
        <_>
          <internalNodes>
            0 -1 315 -2.3833051091060042e-04</internalNodes>
          <leafValues>
            -1. 3.5284362733364105e-02</leafValues></_>
        <_>
          <internalNodes>
            0 -1 271 -8.3059087046422064e-05</internalNodes>
          <leafValues>
            8.8999646902084351e-01 -4.2581215500831604e-02</leafValues></_>
        <_>
          <internalNodes>
            0 -1 287 5.5948062799870968e-04</internalNodes>
          <leafValues>
            1.2318520806729794e-02 -1.</leafValues></_>
        <_>
          <internalNodes>
            0 -1 310 4.1329860687255859e-03</internalNodes>
          <leafValues>
            -1.2525775469839573e-02 9.3756699562072754e-01</leafValues></_>
        <_>
          <internalNodes>
            0 -1 149 -5.2432515076361597e-05</internalNodes>
          <leafValues>
            -1. 1.9206408411264420e-02</leafValues></_>
        <_>
          <internalNodes>
            0 -1 124 -9.8724240160663612e-06</internalNodes>
          <leafValues>
            1. -1.4703829772770405e-02</leafValues></_>
        <_>
          <internalNodes>
            0 -1 190 3.5477706696838140e-03</internalNodes>
          <leafValues>
            1.2013224884867668e-02 -8.6673456430435181e-01</leafValues></_>
        <_>
          <internalNodes>
            0 -1 116 -1.5041354112327099e-02</internalNodes>
          <leafValues>
            1. -6.6379592753946781e-03</leafValues></_>
        <_>
          <internalNodes>
            0 -1 148 -2.4740814114920795e-04</internalNodes>
          <leafValues>
            -1. 5.5141150951385498e-03</leafValues></_>
        <_>
          <internalNodes>
            0 -1 82 -4.1349269449710846e-03</internalNodes>
          <leafValues>
            1. -4.1495752520859241e-03</leafValues></_>
        <_>
          <internalNodes>
            0 -1 76 -3.8566631264984608e-03</internalNodes>
          <leafValues>
            -1. -9.6535142802167684e-05</leafValues></_>
        <_>
          <internalNodes>
            0 -1 81 -1.5269007999449968e-03</internalNodes>
          <leafValues>
            1. -2.1710677538067102e-03</leafValues></_>
        <_>
          <internalNodes>
            0 -1 68 -3.7340674316510558e-04</internalNodes>
          <leafValues>
            -1. 2.1168158855289221e-03</leafValues></_>
        <_>
          <internalNodes>
            0 -1 68 -3.9975317195057869e-03</internalNodes>
          <leafValues>
            1. -1.0284762829542160e-03</leafValues></_>
        <_>
          <internalNodes>
            0 -1 75 -7.8403037041425705e-03</internalNodes>
          <leafValues>
            -1. 2.2101465146988630e-03</leafValues></_>
        <_>
          <internalNodes>
            0 -1 73 -4.9716797657310963e-03</internalNodes>
          <leafValues>
            1. -2.0369554404169321e-03</leafValues></_>
        <_>
          <internalNodes>
            0 -1 73 -7.7080298215150833e-03</internalNodes>
          <leafValues>
            -1. 2.0369561389088631e-03</leafValues></_>
        <_>
          <internalNodes>
            0 -1 73 -4.9716797657310963e-03</internalNodes>
          <leafValues>
            1. -2.0369561389088631e-03</leafValues></_>
        <_>
          <internalNodes>
            0 -1 73 -7.7080298215150833e-03</internalNodes>
          <leafValues>
            -1. 2.0369561389088631e-03</leafValues></_>
        <_>
          <internalNodes>
            0 -1 73 -4.9716797657310963e-03</internalNodes>
          <leafValues>
            1. -2.0369561389088631e-03</leafValues></_>
        <_>
          <internalNodes>
            0 -1 73 -7.7080298215150833e-03</internalNodes>
          <leafValues>
            -1. 2.0369561389088631e-03</leafValues></_>
        <_>
          <internalNodes>
            0 -1 73 -4.9716797657310963e-03</internalNodes>
          <leafValues>
            1. -2.0369561389088631e-03</leafValues></_>
        <_>
          <internalNodes>
            0 -1 73 -7.7080298215150833e-03</internalNodes>
          <leafValues>
            -1. 2.0369561389088631e-03</leafValues></_>
        <_>
          <internalNodes>
            0 -1 73 -4.9716797657310963e-03</internalNodes>
          <leafValues>
            1. -2.0369561389088631e-03</leafValues></_>
        <_>
          <internalNodes>
            0 -1 73 -7.7080298215150833e-03</internalNodes>
          <leafValues>
            -1. 2.0369561389088631e-03</leafValues></_>
        <_>
          <internalNodes>
            0 -1 73 -4.9716797657310963e-03</internalNodes>
          <leafValues>
            1. -2.0369561389088631e-03</leafValues></_>
        <_>
          <internalNodes>
            0 -1 73 -7.7080298215150833e-03</internalNodes>
          <leafValues>
            -1. 2.0369561389088631e-03</leafValues></_>
        <_>
          <internalNodes>
            0 -1 73 -4.9716797657310963e-03</internalNodes>
          <leafValues>
            1. -2.0369561389088631e-03</leafValues></_>
        <_>
          <internalNodes>
            0 -1 73 -7.7080298215150833e-03</internalNodes>
          <leafValues>
            -1. 2.0369561389088631e-03</leafValues></_>
        <_>
          <internalNodes>
            0 -1 73 -4.9716797657310963e-03</internalNodes>
          <leafValues>
            1. -2.0369561389088631e-03</leafValues></_>
        <_>
          <internalNodes>
            0 -1 73 -7.7080298215150833e-03</internalNodes>
          <leafValues>
            -1. 2.0369561389088631e-03</leafValues></_>
        <_>
          <internalNodes>
            0 -1 73 -4.9716797657310963e-03</internalNodes>
          <leafValues>
            1. -2.0369561389088631e-03</leafValues></_>
        <_>
          <internalNodes>
            0 -1 73 -7.7080298215150833e-03</internalNodes>
          <leafValues>
            -1. 2.0369561389088631e-03</leafValues></_>
        <_>
          <internalNodes>
            0 -1 73 -4.9716797657310963e-03</internalNodes>
          <leafValues>
            1. -2.0369561389088631e-03</leafValues></_>
        <_>
          <internalNodes>
            0 -1 73 -7.7080298215150833e-03</internalNodes>
          <leafValues>
            -1. 2.0369561389088631e-03</leafValues></_>
        <_>
          <internalNodes>
            0 -1 73 -4.9716797657310963e-03</internalNodes>
          <leafValues>
            1. -2.0369561389088631e-03</leafValues></_>
        <_>
          <internalNodes>
            0 -1 73 -7.7080298215150833e-03</internalNodes>
          <leafValues>
            -1. 2.0369561389088631e-03</leafValues></_>
        <_>
          <internalNodes>
            0 -1 73 -4.9716797657310963e-03</internalNodes>
          <leafValues>
            1. -2.0369561389088631e-03</leafValues></_>
        <_>
          <internalNodes>
            0 -1 73 -7.7080298215150833e-03</internalNodes>
          <leafValues>
            -1. 2.0369561389088631e-03</leafValues></_>
        <_>
          <internalNodes>
            0 -1 73 -4.9716797657310963e-03</internalNodes>
          <leafValues>
            1. -2.0369561389088631e-03</leafValues></_>
        <_>
          <internalNodes>
            0 -1 73 -7.7080298215150833e-03</internalNodes>
          <leafValues>
            -1. 2.0369561389088631e-03</leafValues></_>
        <_>
          <internalNodes>
            0 -1 73 -4.9716797657310963e-03</internalNodes>
          <leafValues>
            1. -2.0369561389088631e-03</leafValues></_>
        <_>
          <internalNodes>
            0 -1 73 -7.7080298215150833e-03</internalNodes>
          <leafValues>
            -1. 2.0369561389088631e-03</leafValues></_>
        <_>
          <internalNodes>
            0 -1 73 -4.9716797657310963e-03</internalNodes>
          <leafValues>
            1. -2.0369561389088631e-03</leafValues></_>
        <_>
          <internalNodes>
            0 -1 73 -7.7080298215150833e-03</internalNodes>
          <leafValues>
            -1. 2.0369561389088631e-03</leafValues></_>
        <_>
          <internalNodes>
            0 -1 73 -4.9716797657310963e-03</internalNodes>
          <leafValues>
            1. -2.0369561389088631e-03</leafValues></_>
        <_>
          <internalNodes>
            0 -1 73 -7.7080298215150833e-03</internalNodes>
          <leafValues>
            -1. 2.0369561389088631e-03</leafValues></_>
        <_>
          <internalNodes>
            0 -1 73 -4.9716797657310963e-03</internalNodes>
          <leafValues>
            1. -2.0369561389088631e-03</leafValues></_>
        <_>
          <internalNodes>
            0 -1 73 -7.7080298215150833e-03</internalNodes>
          <leafValues>
            -1. 2.0369561389088631e-03</leafValues></_>
        <_>
          <internalNodes>
            0 -1 73 -4.9716797657310963e-03</internalNodes>
          <leafValues>
            1. -2.0369561389088631e-03</leafValues></_>
        <_>
          <internalNodes>
            0 -1 73 -7.7080298215150833e-03</internalNodes>
          <leafValues>
            -1. 2.0369561389088631e-03</leafValues></_>
        <_>
          <internalNodes>
            0 -1 73 -4.9716797657310963e-03</internalNodes>
          <leafValues>
            1. -2.0369561389088631e-03</leafValues></_>
        <_>
          <internalNodes>
            0 -1 73 -7.7080298215150833e-03</internalNodes>
          <leafValues>
            -1. 2.0369561389088631e-03</leafValues></_>
        <_>
          <internalNodes>
            0 -1 73 -4.9716797657310963e-03</internalNodes>
          <leafValues>
            1. -2.0369561389088631e-03</leafValues></_>
        <_>
          <internalNodes>
            0 -1 73 -7.7080298215150833e-03</internalNodes>
          <leafValues>
            -1. 2.0369561389088631e-03</leafValues></_>
        <_>
          <internalNodes>
            0 -1 73 -4.9716797657310963e-03</internalNodes>
          <leafValues>
            1. -2.0369561389088631e-03</leafValues></_>
        <_>
          <internalNodes>
            0 -1 73 -7.7080298215150833e-03</internalNodes>
          <leafValues>
            -1. 2.0369561389088631e-03</leafValues></_>
        <_>
          <internalNodes>
            0 -1 73 -4.9716797657310963e-03</internalNodes>
          <leafValues>
            1. -2.0369561389088631e-03</leafValues></_>
        <_>
          <internalNodes>
            0 -1 73 -7.7080298215150833e-03</internalNodes>
          <leafValues>
            -1. 2.0369561389088631e-03</leafValues></_>
        <_>
          <internalNodes>
            0 -1 73 -4.9716797657310963e-03</internalNodes>
          <leafValues>
            1. -2.0369561389088631e-03</leafValues></_>
        <_>
          <internalNodes>
            0 -1 73 -7.7080298215150833e-03</internalNodes>
          <leafValues>
            -1. 2.0369561389088631e-03</leafValues></_>
        <_>
          <internalNodes>
            0 -1 73 -4.9716797657310963e-03</internalNodes>
          <leafValues>
            1. -2.0369561389088631e-03</leafValues></_>
        <_>
          <internalNodes>
            0 -1 73 -7.7080298215150833e-03</internalNodes>
          <leafValues>
            -1. 2.0369561389088631e-03</leafValues></_>
        <_>
          <internalNodes>
            0 -1 73 -4.9716797657310963e-03</internalNodes>
          <leafValues>
            1. -2.0369561389088631e-03</leafValues></_>
        <_>
          <internalNodes>
            0 -1 73 -7.7080298215150833e-03</internalNodes>
          <leafValues>
            -1. 2.0369561389088631e-03</leafValues></_>
        <_>
          <internalNodes>
            0 -1 73 -4.9716797657310963e-03</internalNodes>
          <leafValues>
            1. -2.0369561389088631e-03</leafValues></_>
        <_>
          <internalNodes>
            0 -1 73 -7.7080298215150833e-03</internalNodes>
          <leafValues>
            -1. 2.0369561389088631e-03</leafValues></_>
        <_>
          <internalNodes>
            0 -1 73 -4.9716797657310963e-03</internalNodes>
          <leafValues>
            1. -2.0369561389088631e-03</leafValues></_>
        <_>
          <internalNodes>
            0 -1 73 -7.7080298215150833e-03</internalNodes>
          <leafValues>
            -1. 2.0369561389088631e-03</leafValues></_>
        <_>
          <internalNodes>
            0 -1 73 -4.9716797657310963e-03</internalNodes>
          <leafValues>
            1. -2.0369561389088631e-03</leafValues></_>
        <_>
          <internalNodes>
            0 -1 73 -7.7080298215150833e-03</internalNodes>
          <leafValues>
            -1. 2.0369561389088631e-03</leafValues></_>
        <_>
          <internalNodes>
            0 -1 73 -4.9716797657310963e-03</internalNodes>
          <leafValues>
            1. -2.0369561389088631e-03</leafValues></_>
        <_>
          <internalNodes>
            0 -1 73 -7.7080298215150833e-03</internalNodes>
          <leafValues>
            -1. 2.0369561389088631e-03</leafValues></_>
        <_>
          <internalNodes>
            0 -1 73 -4.9716797657310963e-03</internalNodes>
          <leafValues>
            1. -2.0369561389088631e-03</leafValues></_>
        <_>
          <internalNodes>
            0 -1 73 -7.7080298215150833e-03</internalNodes>
          <leafValues>
            -1. 2.0369561389088631e-03</leafValues></_>
        <_>
          <internalNodes>
            0 -1 73 -4.9716797657310963e-03</internalNodes>
          <leafValues>
            1. -2.0369561389088631e-03</leafValues></_>
        <_>
          <internalNodes>
            0 -1 73 -7.7080298215150833e-03</internalNodes>
          <leafValues>
            -1. 2.0369561389088631e-03</leafValues></_>
        <_>
          <internalNodes>
            0 -1 73 -4.9716797657310963e-03</internalNodes>
          <leafValues>
            1. -2.0369561389088631e-03</leafValues></_>
        <_>
          <internalNodes>
            0 -1 73 -7.7080298215150833e-03</internalNodes>
          <leafValues>
            -1. 2.0369561389088631e-03</leafValues></_>
        <_>
          <internalNodes>
            0 -1 73 -4.9716797657310963e-03</internalNodes>
          <leafValues>
            1. -2.0369561389088631e-03</leafValues></_>
        <_>
          <internalNodes>
            0 -1 73 -7.7080298215150833e-03</internalNodes>
          <leafValues>
            -1. 2.0369561389088631e-03</leafValues></_>
        <_>
          <internalNodes>
            0 -1 73 -4.9716797657310963e-03</internalNodes>
          <leafValues>
            1. -2.0369561389088631e-03</leafValues></_>
        <_>
          <internalNodes>
            0 -1 73 -7.7080298215150833e-03</internalNodes>
          <leafValues>
            -1. 2.0369561389088631e-03</leafValues></_></weakClassifiers></_>
    <!-- stage 7 -->
    <_>
      <maxWeakCount>100</maxWeakCount>
      <stageThreshold>-2.4872162342071533e+00</stageThreshold>
      <weakClassifiers>
        <_>
          <internalNodes>
            0 -1 161 -4.6898452565073967e-03</internalNodes>
          <leafValues>
            4.0425533056259155e-01 -9.4639176130294800e-01</leafValues></_>
        <_>
          <internalNodes>
            0 -1 224 2.7685007080435753e-03</internalNodes>
          <leafValues>
            -7.0726263523101807e-01 9.2381870746612549e-01</leafValues></_>
        <_>
          <internalNodes>
            0 -1 194 2.5970651768147945e-03</internalNodes>
          <leafValues>
            -5.0742250680923462e-01 8.4895265102386475e-01</leafValues></_>
        <_>
          <internalNodes>
            0 -1 70 1.6119722276926041e-02</internalNodes>
          <leafValues>
            -2.5871345400810242e-01 8.4013390541076660e-01</leafValues></_>
        <_>
          <internalNodes>
            0 -1 292 -2.0889975130558014e-03</internalNodes>
          <leafValues>
            9.3177944421768188e-01 -9.8006561398506165e-02</leafValues></_>
        <_>
          <internalNodes>
            0 -1 138 2.7856952510774136e-04</internalNodes>
          <leafValues>
            1.7990517616271973e-01 -8.1995016336441040e-01</leafValues></_>
        <_>
          <internalNodes>
            0 -1 212 1.2072180397808552e-02</internalNodes>
          <leafValues>
            -1.7783863842487335e-01 8.7126511335372925e-01</leafValues></_>
        <_>
          <internalNodes>
            0 -1 200 2.4715065956115723e-02</internalNodes>
          <leafValues>
            -6.7412413656711578e-02 9.6350580453872681e-01</leafValues></_>
        <_>
          <internalNodes>
            0 -1 144 -4.6425707638263702e-02</internalNodes>
          <leafValues>
            -9.8018598556518555e-01 1.2634789943695068e-01</leafValues></_>
        <_>
          <internalNodes>
            0 -1 226 1.7098784446716309e-03</internalNodes>
          <leafValues>
            -8.2497969269752502e-02 9.5875972509384155e-01</leafValues></_>
        <_>
          <internalNodes>
            0 -1 122 -3.1646669376641512e-03</internalNodes>
          <leafValues>
            -9.2723625898361206e-01 7.5006388127803802e-02</leafValues></_>
        <_>
          <internalNodes>
            0 -1 248 2.9353291029110551e-04</internalNodes>
          <leafValues>
            -7.1534276008605957e-02 9.4511497020721436e-01</leafValues></_>
        <_>
          <internalNodes>
            0 -1 181 9.4391149468719959e-04</internalNodes>
          <leafValues>
            5.4711982607841492e-02 -9.3298500776290894e-01</leafValues></_>
        <_>
          <internalNodes>
            0 -1 236 -2.1563512273132801e-03</internalNodes>
          <leafValues>
            9.3584585189819336e-01 -4.1574176400899887e-02</leafValues></_>
        <_>
          <internalNodes>
            0 -1 140 7.2405897080898285e-03</internalNodes>
          <leafValues>
            4.2300797998905182e-02 -1.</leafValues></_>
        <_>
          <internalNodes>
            0 -1 202 -9.8054134286940098e-04</internalNodes>
          <leafValues>
            9.1639477014541626e-01 -2.2206557914614677e-02</leafValues></_>
        <_>
          <internalNodes>
            0 -1 91 3.3901767892530188e-05</internalNodes>
          <leafValues>
            1.6940977424383163e-02 -1.</leafValues></_>
        <_>
          <internalNodes>
            0 -1 179 4.6050339005887508e-04</internalNodes>
          <leafValues>
            -1.3994837179780006e-02 1.</leafValues></_>
        <_>
          <internalNodes>
            0 -1 232 1.1819422943517566e-03</internalNodes>
          <leafValues>
            1.2225395999848843e-02 -9.1763263940811157e-01</leafValues></_>
        <_>
          <internalNodes>
            0 -1 245 6.7373162892181426e-05</internalNodes>
          <leafValues>
            -5.9748361818492413e-03 1.</leafValues></_>
        <_>
          <internalNodes>
            0 -1 243 5.3977733477950096e-04</internalNodes>
          <leafValues>
            4.6470346860587597e-03 -1.</leafValues></_>
        <_>
          <internalNodes>
            0 -1 251 1.8196329619968310e-05</internalNodes>
          <leafValues>
            -4.1127363219857216e-03 1.</leafValues></_>
        <_>
          <internalNodes>
            0 -1 253 2.1595111320493743e-05</internalNodes>
          <leafValues>
            3.6754119209945202e-03 -1.</leafValues></_>
        <_>
          <internalNodes>
            0 -1 207 -2.0301809126976877e-04</internalNodes>
          <leafValues>
            1. -1.1828837450593710e-03</leafValues></_>
        <_>
          <internalNodes>
            0 -1 164 -3.4552178112789989e-04</internalNodes>
          <leafValues>
            -1. 4.5158979482948780e-03</leafValues></_>
        <_>
          <internalNodes>
            0 -1 100 -3.6719907075166702e-03</internalNodes>
          <leafValues>
            1. -1.3668392784893513e-03</leafValues></_>
        <_>
          <internalNodes>
            0 -1 66 -1.3111063744872808e-03</internalNodes>
          <leafValues>
            -1. -8.5120566151175581e-10</leafValues></_>
        <_>
          <internalNodes>
            0 -1 58 -3.9372113533318043e-03</internalNodes>
          <leafValues>
            1. -1.0394990557820931e-15</leafValues></_>
        <_>
          <internalNodes>
            0 -1 55 -3.5379149485379457e-03</internalNodes>
          <leafValues>
            -1. 4.6414517127185521e-15</leafValues></_>
        <_>
          <internalNodes>
            0 -1 31 -5.0071566365659237e-03</internalNodes>
          <leafValues>
            1. -6.6506850143733219e-15</leafValues></_>
        <_>
          <internalNodes>
            0 -1 31 -2.7315176557749510e-03</internalNodes>
          <leafValues>
            -1. 2.2373210631419869e-15</leafValues></_>
        <_>
          <internalNodes>
            0 -1 31 -5.0071566365659237e-03</internalNodes>
          <leafValues>
            1. -1.4836089120602450e-15</leafValues></_>
        <_>
          <internalNodes>
            0 -1 31 -2.7315176557749510e-03</internalNodes>
          <leafValues>
            -1. 6.5904605483070675e-16</leafValues></_>
        <_>
          <internalNodes>
            0 -1 31 -5.0071566365659237e-03</internalNodes>
          <leafValues>
            1. 6.6025011216522874e-15</leafValues></_>
        <_>
          <internalNodes>
            0 -1 31 -2.7315176557749510e-03</internalNodes>
          <leafValues>
            -1. -4.7692516202838073e-15</leafValues></_>
        <_>
          <internalNodes>
            0 -1 31 -2.4768996518105268e-03</internalNodes>
          <leafValues>
            1. -2.2590051065916970e-16</leafValues></_>
        <_>
          <internalNodes>
            0 -1 31 -1.2705881381407380e-03</internalNodes>
          <leafValues>
            -1. -2.6344749068352678e-15</leafValues></_>
        <_>
          <internalNodes>
            0 -1 31 -2.4768996518105268e-03</internalNodes>
          <leafValues>
            1. 8.8879717726809450e-15</leafValues></_>
        <_>
          <internalNodes>
            0 -1 31 -1.2705881381407380e-03</internalNodes>
          <leafValues>
            -1. -9.3811490829232361e-15</leafValues></_>
        <_>
          <internalNodes>
            0 -1 31 -2.4768996518105268e-03</internalNodes>
          <leafValues>
            1. 3.5744498147764672e-15</leafValues></_>
        <_>
          <internalNodes>
            0 -1 31 -1.2705881381407380e-03</internalNodes>
          <leafValues>
            -1. -8.8105783722903196e-16</leafValues></_>
        <_>
          <internalNodes>
            0 -1 31 -2.4768996518105268e-03</internalNodes>
          <leafValues>
            1. -5.1532891587888555e-16</leafValues></_>
        <_>
          <internalNodes>
            0 -1 31 -1.2705881381407380e-03</internalNodes>
          <leafValues>
            -1. -3.1982282727922081e-15</leafValues></_>
        <_>
          <internalNodes>
            0 -1 31 -2.4768996518105268e-03</internalNodes>
          <leafValues>
            1. 7.5291970940793811e-15</leafValues></_>
        <_>
          <internalNodes>
            0 -1 31 -1.2705881381407380e-03</internalNodes>
          <leafValues>
            -1. -1.6578333190359691e-15</leafValues></_>
        <_>
          <internalNodes>
            0 -1 31 -2.4768996518105268e-03</internalNodes>
          <leafValues>
            1. 3.2452877292757625e-15</leafValues></_>
        <_>
          <internalNodes>
            0 -1 31 -1.2705881381407380e-03</internalNodes>
          <leafValues>
            -1. -6.8621497542706734e-15</leafValues></_>
        <_>
          <internalNodes>
            0 -1 31 -2.4768996518105268e-03</internalNodes>
          <leafValues>
            1. 8.0360099407065719e-15</leafValues></_>
        <_>
          <internalNodes>
            0 -1 31 -1.2705881381407380e-03</internalNodes>
          <leafValues>
            -1. -7.9582328343908403e-15</leafValues></_>
        <_>
          <internalNodes>
            0 -1 31 -2.4768996518105268e-03</internalNodes>
          <leafValues>
            1. 5.1297585007960697e-18</leafValues></_>
        <_>
          <internalNodes>
            0 -1 31 -1.2705881381407380e-03</internalNodes>
          <leafValues>
            -1. 2.6470342878606810e-15</leafValues></_>
        <_>
          <internalNodes>
            0 -1 31 -2.4768996518105268e-03</internalNodes>
          <leafValues>
            1. -2.3890672274008316e-15</leafValues></_>
        <_>
          <internalNodes>
            0 -1 31 -1.2705881381407380e-03</internalNodes>
          <leafValues>
            -1. 5.1043641122389734e-15</leafValues></_>
        <_>
          <internalNodes>
            0 -1 31 -2.4768996518105268e-03</internalNodes>
          <leafValues>
            1. -4.4530936081058244e-15</leafValues></_>
        <_>
          <internalNodes>
            0 -1 31 -1.2705881381407380e-03</internalNodes>
          <leafValues>
            -1. 6.9162455134470693e-15</leafValues></_>
        <_>
          <internalNodes>
            0 -1 31 -2.4768996518105268e-03</internalNodes>
          <leafValues>
            1. -7.1797909211392986e-15</leafValues></_>
        <_>
          <internalNodes>
            0 -1 31 -1.2705881381407380e-03</internalNodes>
          <leafValues>
            -1. 7.6468279475963748e-15</leafValues></_>
        <_>
          <internalNodes>
            0 -1 31 -2.4768996518105268e-03</internalNodes>
          <leafValues>
            1. -2.0906081804139640e-15</leafValues></_>
        <_>
          <internalNodes>
            0 -1 31 -1.2705881381407380e-03</internalNodes>
          <leafValues>
            -1. -5.2561240407832110e-15</leafValues></_>
        <_>
          <internalNodes>
            0 -1 31 -2.4768996518105268e-03</internalNodes>
          <leafValues>
            1. 7.1093736841022596e-15</leafValues></_>
        <_>
          <internalNodes>
            0 -1 31 -1.2705881381407380e-03</internalNodes>
          <leafValues>
            -1. -4.5005562522722718e-15</leafValues></_>
        <_>
          <internalNodes>
            0 -1 31 -2.4768996518105268e-03</internalNodes>
          <leafValues>
            1. -3.2601921210156492e-15</leafValues></_>
        <_>
          <internalNodes>
            0 -1 31 -1.2705881381407380e-03</internalNodes>
          <leafValues>
            -1. 6.0283483086854325e-15</leafValues></_>
        <_>
          <internalNodes>
            0 -1 31 -2.4768996518105268e-03</internalNodes>
          <leafValues>
            1. 4.9618713594124083e-16</leafValues></_>
        <_>
          <internalNodes>
            0 -1 31 -1.2705881381407380e-03</internalNodes>
          <leafValues>
            -1. 1.9358823660049155e-15</leafValues></_>
        <_>
          <internalNodes>
            0 -1 31 -2.4768996518105268e-03</internalNodes>
          <leafValues>
            1. -4.3239164249683337e-15</leafValues></_>
        <_>
          <internalNodes>
            0 -1 31 -1.2705881381407380e-03</internalNodes>
          <leafValues>
            -1. -5.1413777579680919e-15</leafValues></_>
        <_>
          <internalNodes>
            0 -1 31 -2.4768996518105268e-03</internalNodes>
          <leafValues>
            1. 1.0446045680474920e-14</leafValues></_>
        <_>
          <internalNodes>
            0 -1 31 -1.2705881381407380e-03</internalNodes>
          <leafValues>
            -1. -7.1841404353234495e-15</leafValues></_>
        <_>
          <internalNodes>
            0 -1 31 -2.4768996518105268e-03</internalNodes>
          <leafValues>
            1. 9.0936557244715227e-17</leafValues></_>
        <_>
          <internalNodes>
            0 -1 31 -1.2705881381407380e-03</internalNodes>
          <leafValues>
            -1. -2.5998380355561450e-15</leafValues></_>
        <_>
          <internalNodes>
            0 -1 31 -2.4768996518105268e-03</internalNodes>
          <leafValues>
            1. 1.8467116077574295e-15</leafValues></_>
        <_>
          <internalNodes>
            0 -1 31 -1.2705881381407380e-03</internalNodes>
          <leafValues>
            -1. 6.9514088157029107e-15</leafValues></_>
        <_>
          <internalNodes>
            0 -1 31 -2.4768996518105268e-03</internalNodes>
          <leafValues>
            1. -4.5575535228094873e-15</leafValues></_>
        <_>
          <internalNodes>
            0 -1 31 -1.2705881381407380e-03</internalNodes>
          <leafValues>
            -1. 5.0414371875545042e-15</leafValues></_>
        <_>
          <internalNodes>
            0 -1 31 -2.4768996518105268e-03</internalNodes>
          <leafValues>
            1. -6.3622944362722294e-15</leafValues></_>
        <_>
          <internalNodes>
            0 -1 31 -1.2705881381407380e-03</internalNodes>
          <leafValues>
            -1. 2.8742114889295997e-15</leafValues></_>
        <_>
          <internalNodes>
            0 -1 31 -2.4768996518105268e-03</internalNodes>
          <leafValues>
            1. -5.9038810522511493e-15</leafValues></_>
        <_>
          <internalNodes>
            0 -1 31 -1.2705881381407380e-03</internalNodes>
          <leafValues>
            -1. 7.0953044668483657e-15</leafValues></_>
        <_>
          <internalNodes>
            0 -1 31 -2.4768996518105268e-03</internalNodes>
          <leafValues>
            1. -8.9015226057711193e-15</leafValues></_>
        <_>
          <internalNodes>
            0 -1 31 -1.2705881381407380e-03</internalNodes>
          <leafValues>
            -1. 6.5516473810815073e-15</leafValues></_>
        <_>
          <internalNodes>
            0 -1 31 -2.4768996518105268e-03</internalNodes>
          <leafValues>
            1. 1.0646572048649667e-15</leafValues></_>
        <_>
          <internalNodes>
            0 -1 31 -1.2705881381407380e-03</internalNodes>
          <leafValues>
            -1. -5.9094380119016111e-15</leafValues></_>
        <_>
          <internalNodes>
            0 -1 31 -2.4768996518105268e-03</internalNodes>
          <leafValues>
            1. 7.2432133600979116e-15</leafValues></_>
        <_>
          <internalNodes>
            0 -1 31 -1.2705881381407380e-03</internalNodes>
          <leafValues>
            -1. -1.0933292701295247e-15</leafValues></_>
        <_>
          <internalNodes>
            0 -1 31 -2.4768996518105268e-03</internalNodes>
          <leafValues>
            1. -5.8661071944518701e-15</leafValues></_>
        <_>
          <internalNodes>
            0 -1 31 -1.2705881381407380e-03</internalNodes>
          <leafValues>
            -1. 4.5898544889783196e-16</leafValues></_>
        <_>
          <internalNodes>
            0 -1 31 -2.4768996518105268e-03</internalNodes>
          <leafValues>
            1. 3.2238175616452341e-15</leafValues></_>
        <_>
          <internalNodes>
            0 -1 31 -1.2705881381407380e-03</internalNodes>
          <leafValues>
            -1. 2.0196285134999482e-15</leafValues></_>
        <_>
          <internalNodes>
            0 -1 31 -2.4768996518105268e-03</internalNodes>
          <leafValues>
            1. -3.4849686189538124e-15</leafValues></_>
        <_>
          <internalNodes>
            0 -1 31 -1.2705881381407380e-03</internalNodes>
          <leafValues>
            -1. 4.5574665960532753e-16</leafValues></_>
        <_>
          <internalNodes>
            0 -1 31 -2.4768996518105268e-03</internalNodes>
          <leafValues>
            1. 2.6991835653242865e-15</leafValues></_>
        <_>
          <internalNodes>
            0 -1 31 -1.2705881381407380e-03</internalNodes>
          <leafValues>
            -1. 1.1382099461145043e-15</leafValues></_>
        <_>
          <internalNodes>
            0 -1 31 -2.4768996518105268e-03</internalNodes>
          <leafValues>
            1. -1.4181439590284467e-15</leafValues></_>
        <_>
          <internalNodes>
            0 -1 31 -1.2705881381407380e-03</internalNodes>
          <leafValues>
            -1. 2.0399867386289685e-15</leafValues></_>
        <_>
          <internalNodes>
            0 -1 31 -2.4768996518105268e-03</internalNodes>
          <leafValues>
            1. -2.6525493193802537e-15</leafValues></_>
        <_>
          <internalNodes>
            0 -1 31 -1.2705881381407380e-03</internalNodes>
          <leafValues>
            -1. 1.0924038866346494e-15</leafValues></_>
        <_>
          <internalNodes>
            0 -1 31 -2.4768996518105268e-03</internalNodes>
          <leafValues>
            1. 1.9236579865101414e-15</leafValues></_>
        <_>
          <internalNodes>
            0 -1 31 -1.2705881381407380e-03</internalNodes>
          <leafValues>
            -1. 1.6656730854188405e-16</leafValues></_>
        <_>
          <internalNodes>
            0 -1 31 -2.4768996518105268e-03</internalNodes>
          <leafValues>
            1. -1.4475234026830805e-15</leafValues></_></weakClassifiers></_>
    <!-- stage 8 -->
    <_>
      <maxWeakCount>100</maxWeakCount>
      <stageThreshold>-2.5549888610839844e+00</stageThreshold>
      <weakClassifiers>
        <_>
          <internalNodes>
            0 -1 82 -4.1349269449710846e-03</internalNodes>
          <leafValues>
            9.1891890764236450e-01 -9.6831685304641724e-01</leafValues></_>
        <_>
          <internalNodes>
            0 -1 165 -8.7781646288931370e-04</internalNodes>
          <leafValues>
            1. -8.7496310472488403e-01</leafValues></_>
        <_>
          <internalNodes>
            0 -1 77 -1.5135513385757804e-03</internalNodes>
          <leafValues>
            1. -5.5063700675964355e-01</leafValues></_>
        <_>
          <internalNodes>
            0 -1 197 8.9767616009339690e-04</internalNodes>
          <leafValues>
            -1.6246546804904938e-01 1.</leafValues></_>
        <_>
          <internalNodes>
            0 -1 255 5.1028287271037698e-04</internalNodes>
          <leafValues>
            -1.1487624607980251e-02 1.</leafValues></_>
        <_>
          <internalNodes>
            0 -1 238 5.3461483912542462e-04</internalNodes>
          <leafValues>
            -5.2487193606793880e-03 1.</leafValues></_>
        <_>
          <internalNodes>
            0 -1 39 -3.2298928126692772e-03</internalNodes>
          <leafValues>
            -1. 2.3756902664899826e-02</leafValues></_>
        <_>
          <internalNodes>
            0 -1 218 1.2728924048133194e-05</internalNodes>
          <leafValues>
            -8.9247366413474083e-03 1.</leafValues></_>
        <_>
          <internalNodes>
            0 -1 11 6.7031448706984520e-03</internalNodes>
          <leafValues>
            7.1060336194932461e-03 -1.</leafValues></_>
        <_>
          <internalNodes>
            0 -1 60 4.0854453109204769e-03</internalNodes>
          <leafValues>
            -3.8082995451986790e-03 1.</leafValues></_>
        <_>
          <internalNodes>
            0 -1 0 3.3819040254456922e-05</internalNodes>
          <leafValues>
            -1.8410927893341977e-08 -1.</leafValues></_>
        <_>
          <internalNodes>
            0 -1 0 7.1312533691525459e-05</internalNodes>
          <leafValues>
            -8.6709475320342899e-15 1.</leafValues></_>
        <_>
          <internalNodes>
            0 -1 0 1.3445224612951279e-04</internalNodes>
          <leafValues>
            -5.0450109519078681e-17 -1.</leafValues></_>
        <_>
          <internalNodes>
            0 -1 0 7.1312533691525459e-05</internalNodes>
          <leafValues>
            3.3493889255262633e-15 1.</leafValues></_>
        <_>
          <internalNodes>
            0 -1 0 1.3445224612951279e-04</internalNodes>
          <leafValues>
            5.6069972747879379e-15 -1.</leafValues></_>
        <_>
          <internalNodes>
            0 -1 0 7.1312533691525459e-05</internalNodes>
          <leafValues>
            -6.6461487294243015e-15 1.</leafValues></_>
        <_>
          <internalNodes>
            0 -1 0 1.3445224612951279e-04</internalNodes>
          <leafValues>
            6.5781607828799878e-15 -1.</leafValues></_>
        <_>
          <internalNodes>
            0 -1 0 7.1312533691525459e-05</internalNodes>
          <leafValues>
            2.6946500332323447e-16 1.</leafValues></_>
        <_>
          <internalNodes>
