<?xml version="1.0"?>
<opencv_storage>
<stage6>
  <maxWeakCount>100</maxWeakCount>
  <stageThreshold>-2.4526374340057373e+00</stageThreshold>
  <weakClassifiers>
    <_>
      <internalNodes>
        0 -1 9080 -6.5066330134868622e-02</internalNodes>
      <leafValues>
        3.9784947037696838e-01 -9.4238680601119995e-01</leafValues></_>
    <_>
      <internalNodes>
        0 -1 12432 1.1972199426963925e-03</internalNodes>
      <leafValues>
        -7.7292692661285400e-01 4.0969261527061462e-01</leafValues></_>
    <_>
      <internalNodes>
        0 -1 134062 6.6320793703198433e-03</internalNodes>
      <leafValues>
        -4.8095649480819702e-01 7.0173317193984985e-01</leafValues></_>
    <_>
      <internalNodes>
        0 -1 128181 -9.5671415328979492e-03</internalNodes>
      <leafValues>
        8.3086472749710083e-01 -2.2091314196586609e-01</leafValues></_>
    <_>
      <internalNodes>
        0 -1 131014 -1.2992528267204762e-02</internalNodes>
      <leafValues>
        7.9135203361511230e-01 -1.5989528596401215e-01</leafValues></_>
    <_>
      <internalNodes>
        0 -1 9272 -7.5512360781431198e-03</internalNodes>
      <leafValues>
        -9.2191237211227417e-01 2.0641544461250305e-01</leafValues></_>
    <_>
      <internalNodes>
        0 -1 784 4.9062266945838928e-02</internalNodes>
      <leafValues>
        8.7619371712207794e-02 -1.</leafValues></_>
    <_>
      <internalNodes>
        0 -1 126628 -2.1716547780670226e-04</internalNodes>
      <leafValues>
        7.4349838495254517e-01 -1.8725216388702393e-01</leafValues></_>
    <_>
      <internalNodes>
        0 -1 159466 -4.2947118345182389e-05</internalNodes>
      <leafValues>
        -9.4990509748458862e-01 1.1979616433382034e-01</leafValues></_>
    <_>
      <internalNodes>
        0 -1 144124 2.4857206153683364e-04</internalNodes>
      <leafValues>
        -1.5883992612361908e-01 7.8006547689437866e-01</leafValues></_>
    <_>
      <internalNodes>
        0 -1 159660 2.2364263713825494e-05</internalNodes>
      <leafValues>
        1.0195907950401306e-01 -9.2642807960510254e-01</leafValues></_>
    <_>
      <internalNodes>
        0 -1 68623 -3.5627167671918869e-03</internalNodes>
      <leafValues>
        8.0359762907028198e-01 -1.0715989023447037e-01</leafValues></_>
    <_>
      <internalNodes>
        0 -1 13266 -4.5077307149767876e-03</internalNodes>
      <leafValues>
        -9.6495425701141357e-01 7.7408589422702789e-02</leafValues></_>
    <_>
      <internalNodes>
        0 -1 137871 -2.2983141243457794e-03</internalNodes>
      <leafValues>
        9.6004688739776611e-01 -5.9996467083692551e-02</leafValues></_>
    <_>
      <internalNodes>
        0 -1 7950 -8.5097579285502434e-03</internalNodes>
      <leafValues>
        -9.4140106439590454e-01 6.1486557126045227e-02</leafValues></_>
    <_>
      <internalNodes>
        0 -1 9131 2.1373241906985641e-05</internalNodes>
      <leafValues>
        -5.6251544505357742e-02 8.2744455337524414e-01</leafValues></_>
    <_>
      <internalNodes>
        0 -1 37967 2.2776903642807156e-04</internalNodes>
      <leafValues>
        3.4486897289752960e-02 -1.</leafValues></_>
    <_>
      <internalNodes>
        0 -1 159141 -2.3833051091060042e-04</internalNodes>
      <leafValues>
        -1. 3.5284362733364105e-02</leafValues></_>
    <_>
      <internalNodes>
        0 -1 127133 -8.3059087046422064e-05</internalNodes>
      <leafValues>
        8.8999646902084351e-01 -4.2581215500831604e-02</leafValues></_>
    <_>
      <internalNodes>
        0 -1 131061 5.5948062799870968e-04</internalNodes>
      <leafValues>
        1.2318520806729794e-02 -1.</leafValues></_>
    <_>
      <internalNodes>
        0 -1 139291 4.1329860687255859e-03</internalNodes>
      <leafValues>
        -1.2525775469839573e-02 9.3756699562072754e-01</leafValues></_>
    <_>
      <internalNodes>
        0 -1 37494 -5.2432515076361597e-05</internalNodes>
      <leafValues>
        -1. 1.9206408411264420e-02</leafValues></_>
    <_>
      <internalNodes>
        0 -1 11766 -9.8724240160663612e-06</internalNodes>
      <leafValues>
        1. -1.4703829772770405e-02</leafValues></_>
    <_>
      <internalNodes>
        0 -1 82656 3.5477706696838140e-03</internalNodes>
      <leafValues>
        1.2013224884867668e-02 -8.6673456430435181e-01</leafValues></_>
    <_>
      <internalNodes>
        0 -1 10759 -1.5041354112327099e-02</internalNodes>
      <leafValues>
        1. -6.6379592753946781e-03</leafValues></_>
    <_>
      <internalNodes>
        0 -1 35060 -2.4740814114920795e-04</internalNodes>
      <leafValues>
        -1. 5.5141150951385498e-03</leafValues></_>
    <_>
      <internalNodes>
        0 -1 2069 -4.1349269449710846e-03</internalNodes>
      <leafValues>
        1. -4.1495752520859241e-03</leafValues></_>
    <_>
      <internalNodes>
        0 -1 1034 -3.8566631264984608e-03</internalNodes>
      <leafValues>
        -1. -9.6535142802167684e-05</leafValues></_>
    <_>
      <internalNodes>
        0 -1 2028 -1.5269007999449968e-03</internalNodes>
      <leafValues>
        1. -2.1710677538067102e-03</leafValues></_>
    <_>
      <internalNodes>
        0 -1 914 -3.7340674316510558e-04</internalNodes>
      <leafValues>
        -1. 2.1168158855289221e-03</leafValues></_>
    <_>
      <internalNodes>
        0 -1 914 -3.9975317195057869e-03</internalNodes>
      <leafValues>
        1. -1.0284762829542160e-03</leafValues></_>
    <_>
      <internalNodes>
        0 -1 1017 -7.8403037041425705e-03</internalNodes>
      <leafValues>
        -1. 2.2101465146988630e-03</leafValues></_>
    <_>
      <internalNodes>
        0 -1 997 -4.9716797657310963e-03</internalNodes>
      <leafValues>
        1. -2.0369554404169321e-03</leafValues></_>
    <_>
      <internalNodes>
        0 -1 997 -7.7080298215150833e-03</internalNodes>
      <leafValues>
        -1. 2.0369561389088631e-03</leafValues></_>
    <_>
      <internalNodes>
        0 -1 997 -4.9716797657310963e-03</internalNodes>
      <leafValues>
        1. -2.0369561389088631e-03</leafValues></_>
    <_>
      <internalNodes>
        0 -1 997 -7.7080298215150833e-03</internalNodes>
      <leafValues>
        -1. 2.0369561389088631e-03</leafValues></_>
    <_>
      <internalNodes>
        0 -1 997 -4.9716797657310963e-03</internalNodes>
      <leafValues>
        1. -2.0369561389088631e-03</leafValues></_>
    <_>
      <internalNodes>
        0 -1 997 -7.7080298215150833e-03</internalNodes>
      <leafValues>
        -1. 2.0369561389088631e-03</leafValues></_>
    <_>
      <internalNodes>
        0 -1 997 -4.9716797657310963e-03</internalNodes>
      <leafValues>
        1. -2.0369561389088631e-03</leafValues></_>
    <_>
      <internalNodes>
        0 -1 997 -7.7080298215150833e-03</internalNodes>
      <leafValues>
        -1. 2.0369561389088631e-03</leafValues></_>
    <_>
      <internalNodes>
        0 -1 997 -4.9716797657310963e-03</internalNodes>
      <leafValues>
        1. -2.0369561389088631e-03</leafValues></_>
    <_>
      <internalNodes>
        0 -1 997 -7.7080298215150833e-03</internalNodes>
      <leafValues>
        -1. 2.0369561389088631e-03</leafValues></_>
    <_>
      <internalNodes>
        0 -1 997 -4.9716797657310963e-03</internalNodes>
      <leafValues>
        1. -2.0369561389088631e-03</leafValues></_>
    <_>
      <internalNodes>
        0 -1 997 -7.7080298215150833e-03</internalNodes>
      <leafValues>
        -1. 2.0369561389088631e-03</leafValues></_>
    <_>
      <internalNodes>
        0 -1 997 -4.9716797657310963e-03</internalNodes>
      <leafValues>
        1. -2.0369561389088631e-03</leafValues></_>
    <_>
      <internalNodes>
        0 -1 997 -7.7080298215150833e-03</internalNodes>
      <leafValues>
        -1. 2.0369561389088631e-03</leafValues></_>
    <_>
      <internalNodes>
        0 -1 997 -4.9716797657310963e-03</internalNodes>
      <leafValues>
        1. -2.0369561389088631e-03</leafValues></_>
    <_>
      <internalNodes>
        0 -1 997 -7.7080298215150833e-03</internalNodes>
      <leafValues>
        -1. 2.0369561389088631e-03</leafValues></_>
    <_>
      <internalNodes>
        0 -1 997 -4.9716797657310963e-03</internalNodes>
      <leafValues>
        1. -2.0369561389088631e-03</leafValues></_>
    <_>
      <internalNodes>
        0 -1 997 -7.7080298215150833e-03</internalNodes>
      <leafValues>
        -1. 2.0369561389088631e-03</leafValues></_>
    <_>
      <internalNodes>
        0 -1 997 -4.9716797657310963e-03</internalNodes>
      <leafValues>
        1. -2.0369561389088631e-03</leafValues></_>
    <_>
      <internalNodes>
        0 -1 997 -7.7080298215150833e-03</internalNodes>
      <leafValues>
        -1. 2.0369561389088631e-03</leafValues></_>
    <_>
      <internalNodes>
        0 -1 997 -4.9716797657310963e-03</internalNodes>
      <leafValues>
        1. -2.0369561389088631e-03</leafValues></_>
    <_>
      <internalNodes>
        0 -1 997 -7.7080298215150833e-03</internalNodes>
      <leafValues>
        -1. 2.0369561389088631e-03</leafValues></_>
    <_>
      <internalNodes>
        0 -1 997 -4.9716797657310963e-03</internalNodes>
      <leafValues>
        1. -2.0369561389088631e-03</leafValues></_>
    <_>
      <internalNodes>
        0 -1 997 -7.7080298215150833e-03</internalNodes>
      <leafValues>
        -1. 2.0369561389088631e-03</leafValues></_>
    <_>
      <internalNodes>
        0 -1 997 -4.9716797657310963e-03</internalNodes>
      <leafValues>
        1. -2.0369561389088631e-03</leafValues></_>
    <_>
      <internalNodes>
        0 -1 997 -7.7080298215150833e-03</internalNodes>
      <leafValues>
        -1. 2.0369561389088631e-03</leafValues></_>
    <_>
      <internalNodes>
        0 -1 997 -4.9716797657310963e-03</internalNodes>
      <leafValues>
        1. -2.0369561389088631e-03</leafValues></_>
    <_>
      <internalNodes>
        0 -1 997 -7.7080298215150833e-03</internalNodes>
      <leafValues>
        -1. 2.0369561389088631e-03</leafValues></_>
    <_>
      <internalNodes>
        0 -1 997 -4.9716797657310963e-03</internalNodes>
      <leafValues>
        1. -2.0369561389088631e-03</leafValues></_>
    <_>
      <internalNodes>
        0 -1 997 -7.7080298215150833e-03</internalNodes>
      <leafValues>
        -1. 2.0369561389088631e-03</leafValues></_>
    <_>
      <internalNodes>
        0 -1 997 -4.9716797657310963e-03</internalNodes>
      <leafValues>
        1. -2.0369561389088631e-03</leafValues></_>
    <_>
      <internalNodes>
        0 -1 997 -7.7080298215150833e-03</internalNodes>
      <leafValues>
        -1. 2.0369561389088631e-03</leafValues></_>
    <_>
      <internalNodes>
        0 -1 997 -4.9716797657310963e-03</internalNodes>
      <leafValues>
        1. -2.0369561389088631e-03</leafValues></_>
    <_>
      <internalNodes>
        0 -1 997 -7.7080298215150833e-03</internalNodes>
      <leafValues>
        -1. 2.0369561389088631e-03</leafValues></_>
    <_>
      <internalNodes>
        0 -1 997 -4.9716797657310963e-03</internalNodes>
      <leafValues>
        1. -2.0369561389088631e-03</leafValues></_>
    <_>
      <internalNodes>
        0 -1 997 -7.7080298215150833e-03</internalNodes>
      <leafValues>
        -1. 2.0369561389088631e-03</leafValues></_>
    <_>
      <internalNodes>
        0 -1 997 -4.9716797657310963e-03</internalNodes>
      <leafValues>
        1. -2.0369561389088631e-03</leafValues></_>
    <_>
      <internalNodes>
        0 -1 997 -7.7080298215150833e-03</internalNodes>
      <leafValues>
        -1. 2.0369561389088631e-03</leafValues></_>
    <_>
      <internalNodes>
        0 -1 997 -4.9716797657310963e-03</internalNodes>
      <leafValues>
        1. -2.0369561389088631e-03</leafValues></_>
    <_>
      <internalNodes>
        0 -1 997 -7.7080298215150833e-03</internalNodes>
      <leafValues>
        -1. 2.0369561389088631e-03</leafValues></_>
    <_>
      <internalNodes>
        0 -1 997 -4.9716797657310963e-03</internalNodes>
      <leafValues>
        1. -2.0369561389088631e-03</leafValues></_>
    <_>
      <internalNodes>
        0 -1 997 -7.7080298215150833e-03</internalNodes>
      <leafValues>
        -1. 2.0369561389088631e-03</leafValues></_>
    <_>
      <internalNodes>
        0 -1 997 -4.9716797657310963e-03</internalNodes>
      <leafValues>
        1. -2.0369561389088631e-03</leafValues></_>
    <_>
      <internalNodes>
        0 -1 997 -7.7080298215150833e-03</internalNodes>
      <leafValues>
        -1. 2.0369561389088631e-03</leafValues></_>
    <_>
      <internalNodes>
        0 -1 997 -4.9716797657310963e-03</internalNodes>
      <leafValues>
        1. -2.0369561389088631e-03</leafValues></_>
    <_>
      <internalNodes>
        0 -1 997 -7.7080298215150833e-03</internalNodes>
      <leafValues>
        -1. 2.0369561389088631e-03</leafValues></_>
    <_>
      <internalNodes>
        0 -1 997 -4.9716797657310963e-03</internalNodes>
      <leafValues>
        1. -2.0369561389088631e-03</leafValues></_>
    <_>
      <internalNodes>
        0 -1 997 -7.7080298215150833e-03</internalNodes>
      <leafValues>
        -1. 2.0369561389088631e-03</leafValues></_>
    <_>
      <internalNodes>
        0 -1 997 -4.9716797657310963e-03</internalNodes>
      <leafValues>
        1. -2.0369561389088631e-03</leafValues></_>
    <_>
      <internalNodes>
        0 -1 997 -7.7080298215150833e-03</internalNodes>
      <leafValues>
        -1. 2.0369561389088631e-03</leafValues></_>
    <_>
      <internalNodes>
        0 -1 997 -4.9716797657310963e-03</internalNodes>
      <leafValues>
        1. -2.0369561389088631e-03</leafValues></_>
    <_>
      <internalNodes>
        0 -1 997 -7.7080298215150833e-03</internalNodes>
      <leafValues>
        -1. 2.0369561389088631e-03</leafValues></_>
    <_>
      <internalNodes>
        0 -1 997 -4.9716797657310963e-03</internalNodes>
      <leafValues>
        1. -2.0369561389088631e-03</leafValues></_>
    <_>
      <internalNodes>
        0 -1 997 -7.7080298215150833e-03</internalNodes>
      <leafValues>
        -1. 2.0369561389088631e-03</leafValues></_>
    <_>
      <internalNodes>
        0 -1 997 -4.9716797657310963e-03</internalNodes>
      <leafValues>
        1. -2.0369561389088631e-03</leafValues></_>
    <_>
      <internalNodes>
        0 -1 997 -7.7080298215150833e-03</internalNodes>
      <leafValues>
        -1. 2.0369561389088631e-03</leafValues></_>
    <_>
      <internalNodes>
        0 -1 997 -4.9716797657310963e-03</internalNodes>
      <leafValues>
        1. -2.0369561389088631e-03</leafValues></_>
    <_>
      <internalNodes>
        0 -1 997 -7.7080298215150833e-03</internalNodes>
      <leafValues>
        -1. 2.0369561389088631e-03</leafValues></_>
    <_>
      <internalNodes>
        0 -1 997 -4.9716797657310963e-03</internalNodes>
      <leafValues>
        1. -2.0369561389088631e-03</leafValues></_>
    <_>
      <internalNodes>
        0 -1 997 -7.7080298215150833e-03</internalNodes>
      <leafValues>
        -1. 2.0369561389088631e-03</leafValues></_>
    <_>
      <internalNodes>
        0 -1 997 -4.9716797657310963e-03</internalNodes>
      <leafValues>
        1. -2.0369561389088631e-03</leafValues></_>
    <_>
      <internalNodes>
        0 -1 997 -7.7080298215150833e-03</internalNodes>
      <leafValues>
        -1. 2.0369561389088631e-03</leafValues></_>
    <_>
      <internalNodes>
        0 -1 997 -4.9716797657310963e-03</internalNodes>
      <leafValues>
        1. -2.0369561389088631e-03</leafValues></_>
    <_>
      <internalNodes>
        0 -1 997 -7.7080298215150833e-03</internalNodes>
      <leafValues>
        -1. 2.0369561389088631e-03</leafValues></_>
    <_>
      <internalNodes>
        0 -1 997 -4.9716797657310963e-03</internalNodes>
      <leafValues>
        1. -2.0369561389088631e-03</leafValues></_>
    <_>
      <internalNodes>
        0 -1 997 -7.7080298215150833e-03</internalNodes>
      <leafValues>
        -1. 2.0369561389088631e-03</leafValues></_>
    <_>
      <internalNodes>
        0 -1 997 -4.9716797657310963e-03</internalNodes>
      <leafValues>
        1. -2.0369561389088631e-03</leafValues></_>
    <_>
      <internalNodes>
        0 -1 997 -7.7080298215150833e-03</internalNodes>
      <leafValues>
        -1. 2.0369561389088631e-03</leafValues></_></weakClassifiers></stage6>
</opencv_storage>
