<?xml version="1.0"?>
<opencv_storage>
<stage0>
  <maxWeakCount>6</maxWeakCount>
  <stageThreshold>-1.6964869499206543e+00</stageThreshold>
  <weakClassifiers>
    <_>
      <internalNodes>
        0 -1 48603 -8.0733329057693481e-02</internalNodes>
      <leafValues>
        7.2093021869659424e-01 -8.4328359365463257e-01</leafValues></_>
    <_>
      <internalNodes>
        0 -1 62149 -3.6451659980230033e-05</internalNodes>
      <leafValues>
        6.7414551973342896e-01 -6.4954274892807007e-01</leafValues></_>
    <_>
      <internalNodes>
        0 -1 86281 1.6909772239159793e-04</internalNodes>
      <leafValues>
        -4.8078256845474243e-01 6.6974842548370361e-01</leafValues></_>
    <_>
      <internalNodes>
        0 -1 117123 -1.2659737876674626e-05</internalNodes>
      <leafValues>
        6.7235726118087769e-01 -3.6729753017425537e-01</leafValues></_>
    <_>
      <internalNodes>
        0 -1 856 -7.5454801321029663e-02</internalNodes>
      <leafValues>
        -9.7173774242401123e-01 2.8361549973487854e-01</leafValues></_>
    <_>
      <internalNodes>
        0 -1 807 1.3151302933692932e-01</internalNodes>
      <leafValues>
        3.6080399155616760e-01 -9.6140623092651367e-01</leafValues></_></weakClassifiers></stage0>
</opencv_storage>
