<?xml version="1.0"?>
<opencv_storage>
<stage10>
  <maxWeakCount>100</maxWeakCount>
  <stageThreshold>-2.5529727935791016e+00</stageThreshold>
  <weakClassifiers>
    <_>
      <internalNodes>
        0 -1 2069 -4.1349269449710846e-03</internalNodes>
      <leafValues>
        9.4520545005798340e-01 -9.6837943792343140e-01</leafValues></_>
    <_>
      <internalNodes>
        0 -1 86171 -1.6393708065152168e-03</internalNodes>
      <leafValues>
        9.7775894403457642e-01 -8.5728722810745239e-01</leafValues></_>
    <_>
      <internalNodes>
        0 -1 111771 2.6842323131859303e-04</internalNodes>
      <leafValues>
        -5.4135859012603760e-01 1.</leafValues></_>
    <_>
      <internalNodes>
        0 -1 118705 3.8212290382944047e-04</internalNodes>
      <leafValues>
        -1.6322568058967590e-01 1.</leafValues></_>
    <_>
      <internalNodes>
        0 -1 79929 1.7583619046490639e-04</internalNodes>
      <leafValues>
        -2.1343614906072617e-02 1.</leafValues></_>
    <_>
      <internalNodes>
        0 -1 102279 2.8818167629651725e-04</internalNodes>
      <leafValues>
        -1.4028661884367466e-02 1.</leafValues></_>
    <_>
      <internalNodes>
        0 -1 13350 5.5813914514146745e-05</internalNodes>
      <leafValues>
        2.7684811502695084e-02 -1.</leafValues></_>
    <_>
      <internalNodes>
        0 -1 98750 1.2347589654382318e-04</internalNodes>
      <leafValues>
        -1.5704248100519180e-02 1.</leafValues></_>
    <_>
      <internalNodes>
        0 -1 4613 -1.0236033704131842e-03</internalNodes>
      <leafValues>
        1. -6.4431219361722469e-03</leafValues></_>
    <_>
      <internalNodes>
        0 -1 267 1.1162782902829349e-04</internalNodes>
      <leafValues>
        7.1129100397229195e-03 -1.</leafValues></_>
    <_>
      <internalNodes>
        0 -1 195 7.2106282459571958e-05</internalNodes>
      <leafValues>
        1.1995931004094018e-07 1.</leafValues></_>
    <_>
      <internalNodes>
        0 -1 2 2.6429201170685701e-05</internalNodes>
      <leafValues>
        -4.1225382063464456e-16 -1.</leafValues></_>
    <_>
      <internalNodes>
        0 -1 2 3.6022709537064657e-05</internalNodes>
      <leafValues>
        -3.6915366084435276e-16 1.</leafValues></_>
    <_>
      <internalNodes>
        0 -1 2 2.6429201170685701e-05</internalNodes>
      <leafValues>
        -2.7868546517386588e-15 -1.</leafValues></_>
    <_>
      <internalNodes>
        0 -1 2 1.6776451957412064e-05</internalNodes>
      <leafValues>
        3.1989704854122397e-15 1.</leafValues></_>
    <_>
      <internalNodes>
        0 -1 2 2.6429201170685701e-05</internalNodes>
      <leafValues>
        -9.6719990211866815e-15 -1.</leafValues></_>
    <_>
      <internalNodes>
        0 -1 2 1.6776451957412064e-05</internalNodes>
      <leafValues>
        1.1545837494354640e-14 1.</leafValues></_>
    <_>
      <internalNodes>
        0 -1 2 2.6429201170685701e-05</internalNodes>
      <leafValues>
        -1.1798913786577043e-15 -1.</leafValues></_>
    <_>
      <internalNodes>
        0 -1 2 1.6776451957412064e-05</internalNodes>
      <leafValues>
        1.7181970690824876e-16 1.</leafValues></_>
    <_>
      <internalNodes>
        0 -1 2 2.6429201170685701e-05</internalNodes>
      <leafValues>
        -1.1310069896892905e-15 -1.</leafValues></_>
    <_>
      <internalNodes>
        0 -1 2 1.6776451957412064e-05</internalNodes>
      <leafValues>
        -5.8909612851764591e-17 1.</leafValues></_>
    <_>
      <internalNodes>
        0 -1 2 2.6429201170685701e-05</internalNodes>
      <leafValues>
        -9.6702215225468683e-16 -1.</leafValues></_>
    <_>
      <internalNodes>
        0 -1 2 1.6776451957412064e-05</internalNodes>
      <leafValues>
        3.5992882089217523e-15 1.</leafValues></_>
    <_>
      <internalNodes>
        0 -1 2 2.6429201170685701e-05</internalNodes>
      <leafValues>
        -2.1611344729429620e-15 -1.</leafValues></_>
    <_>
      <internalNodes>
        0 -1 2 1.6776451957412064e-05</internalNodes>
      <leafValues>
        -2.3028303265848385e-16 1.</leafValues></_>
    <_>
      <internalNodes>
        0 -1 2 2.6429201170685701e-05</internalNodes>
      <leafValues>
        -1.1950011758873002e-15 -1.</leafValues></_>
    <_>
      <internalNodes>
        0 -1 2 1.6776451957412064e-05</internalNodes>
      <leafValues>
        3.6006269444948877e-15 1.</leafValues></_>
    <_>
      <internalNodes>
        0 -1 2 2.6429201170685701e-05</internalNodes>
      <leafValues>
        -2.1598012430839838e-15 -1.</leafValues></_>
    <_>
      <internalNodes>
        0 -1 2 1.6776451957412064e-05</internalNodes>
      <leafValues>
        -2.2894416473645041e-16 1.</leafValues></_>
    <_>
      <internalNodes>
        0 -1 2 2.6429201170685701e-05</internalNodes>
      <leafValues>
        -9.6702215225468683e-16 -1.</leafValues></_>
    <_>
      <internalNodes>
        0 -1 2 1.6776451957412064e-05</internalNodes>
      <leafValues>
        3.5992882089217523e-15 1.</leafValues></_>
    <_>
      <internalNodes>
        0 -1 2 2.6429201170685701e-05</internalNodes>
      <leafValues>
        -2.1611344729429620e-15 -1.</leafValues></_>
    <_>
      <internalNodes>
        0 -1 2 1.6776451957412064e-05</internalNodes>
      <leafValues>
        -2.3028303265848385e-16 1.</leafValues></_>
    <_>
      <internalNodes>
        0 -1 2 2.6429201170685701e-05</internalNodes>
      <leafValues>
        -1.1950011758873002e-15 -1.</leafValues></_>
    <_>
      <internalNodes>
        0 -1 2 1.6776451957412064e-05</internalNodes>
      <leafValues>
        3.6006269444948877e-15 1.</leafValues></_>
    <_>
      <internalNodes>
        0 -1 2 2.6429201170685701e-05</internalNodes>
      <leafValues>
        -2.1598012430839838e-15 -1.</leafValues></_>
    <_>
      <internalNodes>
        0 -1 2 1.6776451957412064e-05</internalNodes>
      <leafValues>
        -2.2894416473645041e-16 1.</leafValues></_>
    <_>
      <internalNodes>
        0 -1 2 2.6429201170685701e-05</internalNodes>
      <leafValues>
        -9.6702215225468683e-16 -1.</leafValues></_>
    <_>
      <internalNodes>
        0 -1 2 1.6776451957412064e-05</internalNodes>
      <leafValues>
        3.5992882089217523e-15 1.</leafValues></_>
    <_>
      <internalNodes>
        0 -1 2 2.6429201170685701e-05</internalNodes>
      <leafValues>
        -2.1611344729429620e-15 -1.</leafValues></_>
    <_>
      <internalNodes>
        0 -1 2 1.6776451957412064e-05</internalNodes>
      <leafValues>
        -2.3028303265848385e-16 1.</leafValues></_>
    <_>
      <internalNodes>
        0 -1 2 2.6429201170685701e-05</internalNodes>
      <leafValues>
        -1.1950011758873002e-15 -1.</leafValues></_>
    <_>
      <internalNodes>
        0 -1 2 1.6776451957412064e-05</internalNodes>
      <leafValues>
        3.6006269444948877e-15 1.</leafValues></_>
    <_>
      <internalNodes>
        0 -1 2 2.6429201170685701e-05</internalNodes>
      <leafValues>
        -2.1598012430839838e-15 -1.</leafValues></_>
    <_>
      <internalNodes>
        0 -1 2 1.6776451957412064e-05</internalNodes>
      <leafValues>
        -2.2894416473645041e-16 1.</leafValues></_>
    <_>
      <internalNodes>
        0 -1 2 2.6429201170685701e-05</internalNodes>
      <leafValues>
        -9.6702215225468683e-16 -1.</leafValues></_>
    <_>
      <internalNodes>
        0 -1 2 1.6776451957412064e-05</internalNodes>
      <leafValues>
        3.5992882089217523e-15 1.</leafValues></_>
    <_>
      <internalNodes>
        0 -1 2 2.6429201170685701e-05</internalNodes>
      <leafValues>
        -2.1611344729429620e-15 -1.</leafValues></_>
    <_>
      <internalNodes>
        0 -1 2 1.6776451957412064e-05</internalNodes>
      <leafValues>
        -2.3028303265848385e-16 1.</leafValues></_>
    <_>
      <internalNodes>
        0 -1 2 2.6429201170685701e-05</internalNodes>
      <leafValues>
        -1.1950011758873002e-15 -1.</leafValues></_>
    <_>
      <internalNodes>
        0 -1 2 1.6776451957412064e-05</internalNodes>
      <leafValues>
        3.6006269444948877e-15 1.</leafValues></_>
    <_>
      <internalNodes>
        0 -1 2 2.6429201170685701e-05</internalNodes>
      <leafValues>
        -2.1598012430839838e-15 -1.</leafValues></_>
    <_>
      <internalNodes>
        0 -1 2 1.6776451957412064e-05</internalNodes>
      <leafValues>
        -2.2894416473645041e-16 1.</leafValues></_>
    <_>
      <internalNodes>
        0 -1 2 2.6429201170685701e-05</internalNodes>
      <leafValues>
        -9.6702215225468683e-16 -1.</leafValues></_>
    <_>
      <internalNodes>
        0 -1 2 1.6776451957412064e-05</internalNodes>
      <leafValues>
        3.5992882089217523e-15 1.</leafValues></_>
    <_>
      <internalNodes>
        0 -1 2 2.6429201170685701e-05</internalNodes>
      <leafValues>
        -2.1611344729429620e-15 -1.</leafValues></_>
    <_>
      <internalNodes>
        0 -1 2 1.6776451957412064e-05</internalNodes>
      <leafValues>
        -3.4319310686263332e-16 1.</leafValues></_>
    <_>
      <internalNodes>
        0 -1 2 2.6429201170685701e-05</internalNodes>
      <leafValues>
        -9.6524454773575527e-16 -1.</leafValues></_>
    <_>
      <internalNodes>
        0 -1 2 1.6776451957412064e-05</internalNodes>
      <leafValues>
        3.6055359239407000e-15 1.</leafValues></_>
    <_>
      <internalNodes>
        0 -1 2 2.6429201170685701e-05</internalNodes>
      <leafValues>
        -2.1549128041871424e-15 -1.</leafValues></_>
    <_>
      <internalNodes>
        0 -1 2 1.6776451957412064e-05</internalNodes>
      <leafValues>
        -2.8517608806626245e-16 1.</leafValues></_>
    <_>
      <internalNodes>
        0 -1 2 2.6429201170685701e-05</internalNodes>
      <leafValues>
        -1.0741234333252439e-15 -1.</leafValues></_>
    <_>
      <internalNodes>
        0 -1 2 1.6776451957412064e-05</internalNodes>
      <leafValues>
        3.5064608094409694e-15 1.</leafValues></_>
    <_>
      <internalNodes>
        0 -1 2 2.6429201170685701e-05</internalNodes>
      <leafValues>
        -2.1966867750798300e-15 -1.</leafValues></_>
    <_>
      <internalNodes>
        0 -1 2 1.6776451957412064e-05</internalNodes>
      <leafValues>
        -2.8383722014422902e-16 1.</leafValues></_>
    <_>
      <internalNodes>
        0 -1 2 2.6429201170685701e-05</internalNodes>
      <leafValues>
        -1.0736789527861722e-15 -1.</leafValues></_>
    <_>
      <internalNodes>
        0 -1 2 1.6776451957412064e-05</internalNodes>
      <leafValues>
        3.5113700006450185e-15 1.</leafValues></_>
    <_>
      <internalNodes>
        0 -1 2 2.6429201170685701e-05</internalNodes>
      <leafValues>
        -2.1917983361829886e-15 -1.</leafValues></_>
    <_>
      <internalNodes>
        0 -1 2 1.6776451957412064e-05</internalNodes>
      <leafValues>
        -2.7892808187973911e-16 1.</leafValues></_>
    <_>
      <internalNodes>
        0 -1 2 2.6429201170685701e-05</internalNodes>
      <leafValues>
        -1.0590136360956481e-15 -1.</leafValues></_>
    <_>
      <internalNodes>
        0 -1 2 1.6776451957412064e-05</internalNodes>
      <leafValues>
        3.5127087362181540e-15 1.</leafValues></_>
    <_>
      <internalNodes>
        0 -1 2 2.6429201170685701e-05</internalNodes>
      <leafValues>
        -2.1904651063240103e-15 -1.</leafValues></_>
    <_>
      <internalNodes>
        0 -1 2 1.6776451957412064e-05</internalNodes>
      <leafValues>
        -2.6420069355604899e-16 1.</leafValues></_>
    <_>
      <internalNodes>
        0 -1 2 2.6429201170685701e-05</internalNodes>
      <leafValues>
        -1.0590136360956481e-15 -1.</leafValues></_>
    <_>
      <internalNodes>
        0 -1 2 1.6776451957412064e-05</internalNodes>
      <leafValues>
        3.5127087362181540e-15 1.</leafValues></_>
    <_>
      <internalNodes>
        0 -1 2 2.6429201170685701e-05</internalNodes>
      <leafValues>
        -2.1904651063240103e-15 -1.</leafValues></_>
    <_>
      <internalNodes>
        0 -1 2 1.6776451957412064e-05</internalNodes>
      <leafValues>
        -2.6420069355604899e-16 1.</leafValues></_>
    <_>
      <internalNodes>
        0 -1 2 2.6429201170685701e-05</internalNodes>
      <leafValues>
        -1.0590136360956481e-15 -1.</leafValues></_>
    <_>
      <internalNodes>
        0 -1 2 1.6776451957412064e-05</internalNodes>
      <leafValues>
        3.5127087362181540e-15 1.</leafValues></_>
    <_>
      <internalNodes>
        0 -1 2 2.6429201170685701e-05</internalNodes>
      <leafValues>
        -2.1904651063240103e-15 -1.</leafValues></_>
    <_>
      <internalNodes>
        0 -1 2 1.6776451957412064e-05</internalNodes>
      <leafValues>
        -2.6420069355604899e-16 1.</leafValues></_>
    <_>
      <internalNodes>
        0 -1 2 2.6429201170685701e-05</internalNodes>
      <leafValues>
        -1.0590136360956481e-15 -1.</leafValues></_>
    <_>
      <internalNodes>
        0 -1 2 1.6776451957412064e-05</internalNodes>
      <leafValues>
        3.5127087362181540e-15 1.</leafValues></_>
    <_>
      <internalNodes>
        0 -1 2 2.6429201170685701e-05</internalNodes>
      <leafValues>
        -2.1904651063240103e-15 -1.</leafValues></_>
    <_>
      <internalNodes>
        0 -1 2 1.6776451957412064e-05</internalNodes>
      <leafValues>
        -2.6420069355604899e-16 1.</leafValues></_>
    <_>
      <internalNodes>
        0 -1 2 2.6429201170685701e-05</internalNodes>
      <leafValues>
        -1.0590136360956481e-15 -1.</leafValues></_>
    <_>
      <internalNodes>
        0 -1 2 1.6776451957412064e-05</internalNodes>
      <leafValues>
        3.5127087362181540e-15 1.</leafValues></_>
    <_>
      <internalNodes>
        0 -1 2 2.6429201170685701e-05</internalNodes>
      <leafValues>
        -2.1904651063240103e-15 -1.</leafValues></_>
    <_>
      <internalNodes>
        0 -1 2 1.6776451957412064e-05</internalNodes>
      <leafValues>
        -2.6420069355604899e-16 1.</leafValues></_>
    <_>
      <internalNodes>
        0 -1 2 2.6429201170685701e-05</internalNodes>
      <leafValues>
        -1.0590136360956481e-15 -1.</leafValues></_>
    <_>
      <internalNodes>
        0 -1 2 1.6776451957412064e-05</internalNodes>
      <leafValues>
        3.5127087362181540e-15 1.</leafValues></_>
    <_>
      <internalNodes>
        0 -1 2 2.6429201170685701e-05</internalNodes>
      <leafValues>
        -2.1904651063240103e-15 -1.</leafValues></_>
    <_>
      <internalNodes>
        0 -1 2 1.6776451957412064e-05</internalNodes>
      <leafValues>
        -2.6420069355604899e-16 1.</leafValues></_>
    <_>
      <internalNodes>
        0 -1 2 2.6429201170685701e-05</internalNodes>
      <leafValues>
        -1.0590136360956481e-15 -1.</leafValues></_>
    <_>
      <internalNodes>
        0 -1 2 1.6776451957412064e-05</internalNodes>
      <leafValues>
        3.5127087362181540e-15 1.</leafValues></_>
    <_>
      <internalNodes>
        0 -1 2 2.6429201170685701e-05</internalNodes>
      <leafValues>
        -2.1904651063240103e-15 -1.</leafValues></_>
    <_>
      <internalNodes>
        0 -1 2 1.6776451957412064e-05</internalNodes>
      <leafValues>
        -3.2087887090016603e-16 1.</leafValues></_>
    <_>
      <internalNodes>
        0 -1 2 2.6429201170685701e-05</internalNodes>
      <leafValues>
        -1.1096756295829934e-15 -1.</leafValues></_>
    <_>
      <internalNodes>
        0 -1 2 1.6776451957412064e-05</internalNodes>
      <leafValues>
        3.4564769717070195e-15 1.</leafValues></_>
    <_>
      <internalNodes>
        0 -1 2 2.6429201170685701e-05</internalNodes>
      <leafValues>
        -2.1326925888818203e-15 -1.</leafValues></_></weakClassifiers></stage10>
</opencv_storage>
