<?xml version="1.0"?>
<opencv_storage>
<stage12>
  <maxWeakCount>24</maxWeakCount>
  <stageThreshold>-2.5334026813507080e+00</stageThreshold>
  <weakClassifiers>
    <_>
      <internalNodes>
        0 -1 48813 -1.9747207406908274e-03</internalNodes>
      <leafValues>
        8.5714286565780640e-01 -9.4499015808105469e-01</leafValues></_>
    <_>
      <internalNodes>
        0 -1 818 4.3058833107352257e-03</internalNodes>
      <leafValues>
        -7.9643458127975464e-01 9.6238404512405396e-01</leafValues></_>
    <_>
      <internalNodes>
        0 -1 39902 -3.6392659239936620e-05</internalNodes>
      <leafValues>
        9.4859975576400757e-01 -5.5297392606735229e-01</leafValues></_>
    <_>
      <internalNodes>
        0 -1 101175 -5.6314107496291399e-04</internalNodes>
      <leafValues>
        9.9196666479110718e-01 -1.7371429502964020e-01</leafValues></_>
    <_>
      <internalNodes>
        0 -1 121950 -1.1350647546350956e-03</internalNodes>
      <leafValues>
        9.8704022169113159e-01 -4.5407745987176895e-02</leafValues></_>
    <_>
      <internalNodes>
        0 -1 88741 -1.0984831023961306e-03</internalNodes>
      <leafValues>
        9.8008149862289429e-01 -4.3682765215635300e-02</leafValues></_>
    <_>
      <internalNodes>
        0 -1 106756 1.7228558426722884e-03</internalNodes>
      <leafValues>
        8.8502332568168640e-02 -9.2890703678131104e-01</leafValues></_>
    <_>
      <internalNodes>
        0 -1 130435 6.0998909175395966e-02</internalNodes>
      <leafValues>
        -7.5902618467807770e-02 9.2174458503723145e-01</leafValues></_>
    <_>
      <internalNodes>
        0 -1 137164 -5.7141873985528946e-03</internalNodes>
      <leafValues>
        1. -2.1856009960174561e-02</leafValues></_>
    <_>
      <internalNodes>
        0 -1 123397 2.6556261218502186e-05</internalNodes>
      <leafValues>
        4.3353155255317688e-02 -8.8032740354537964e-01</leafValues></_>
    <_>
      <internalNodes>
        0 -1 56551 8.8259056210517883e-03</internalNodes>
      <leafValues>
        -1.3768266886472702e-02 1.</leafValues></_>
    <_>
      <internalNodes>
        0 -1 42444 -2.5984298437833786e-02</internalNodes>
      <leafValues>
        -1. 1.2703474611043930e-02</leafValues></_>
    <_>
      <internalNodes>
        0 -1 15067 -1.8866278696805239e-03</internalNodes>
      <leafValues>
        1. -1.5309025533497334e-02</leafValues></_>
    <_>
      <internalNodes>
        0 -1 102723 -2.7678348487825133e-05</internalNodes>
      <leafValues>
        -1. 7.4321418069303036e-03</leafValues></_>
    <_>
      <internalNodes>
        0 -1 545 -2.2262032143771648e-03</internalNodes>
      <leafValues>
        1. -2.4065196048468351e-03</leafValues></_>
    <_>
      <internalNodes>
        0 -1 936 -1.1182160815224051e-03</internalNodes>
      <leafValues>
        -1. 1.0520480573177338e-03</leafValues></_>
    <_>
      <internalNodes>
        0 -1 773 -3.9372113533318043e-03</internalNodes>
      <leafValues>
        1. 3.8814423897193251e-10</leafValues></_>
    <_>
      <internalNodes>
        0 -1 294 -3.4659644588828087e-03</internalNodes>
      <leafValues>
        -1. -5.5491834644895693e-15</leafValues></_>
    <_>
      <internalNodes>
        0 -1 148 -3.3552903914824128e-05</internalNodes>
      <leafValues>
        1. 6.6662022344505471e-15</leafValues></_>
    <_>
      <internalNodes>
        0 -1 64 -2.8163764000055380e-05</internalNodes>
      <leafValues>
        -1. 2.2150917422324818e-17</leafValues></_>
    <_>
      <internalNodes>
        0 -1 48 -3.9801368984626606e-05</internalNodes>
      <leafValues>
        1. -7.8418555896357829e-15</leafValues></_>
    <_>
      <internalNodes>
        0 -1 40 -8.3032660768367350e-05</internalNodes>
      <leafValues>
        -1. -1.0240474807582801e-15</leafValues></_>
    <_>
      <internalNodes>
        0 -1 35 -8.5584491898771375e-05</internalNodes>
      <leafValues>
        1. 4.3895094917334042e-16</leafValues></_>
    <_>
      <internalNodes>
        0 -1 8 1.7380603821948171e-03</internalNodes>
      <leafValues>
        -8.2617666675229452e-16 -1.</leafValues></_></weakClassifiers></stage12>
</opencv_storage>
