<?xml version="1.0"?>
<opencv_storage>
<cascade>
  <stageType>BOOST</stageType>
  <featureType>HAAR</featureType>
  <height>34</height>
  <width>34</width>
  <stageParams>
    <boostType>GAB</boostType>
    <minHitRate>9.9500000476837158e-01</minHitRate>
    <maxFalseAlarm>5.0000000000000000e-01</maxFalseAlarm>
    <weightTrimRate>9.4999998807907104e-01</weightTrimRate>
    <maxDepth>1</maxDepth>
    <maxWeakCount>100</maxWeakCount></stageParams>
  <featureParams>
    <maxCatCount>0</maxCatCount>
    <featSize>1</featSize>
    <mode>BASIC</mode></featureParams>
  <stageNum>6</stageNum>
  <stages>
    <!-- stage 0 -->
    <_>
      <maxWeakCount>2</maxWeakCount>
      <stageThreshold>-3.7587550282478333e-01</stageThreshold>
      <weakClassifiers>
        <_>
          <internalNodes>
            0 -1 0 7.1194255724549294e-05</internalNodes>
          <leafValues>
            -9.9395161867141724e-01 6.0714286565780640e-01</leafValues></_>
        <_>
          <internalNodes>
            0 -1 12 1.2042378511978313e-04</internalNodes>
          <leafValues>
            -9.8301833868026733e-01 7.3718607425689697e-01</leafValues></_></weakClassifiers></_>
    <!-- stage 1 -->
    <_>
      <maxWeakCount>3</maxWeakCount>
      <stageThreshold>-1.3398156166076660e+00</stageThreshold>
      <weakClassifiers>
        <_>
          <internalNodes>
            0 -1 1 1.1715766042470932e-02</internalNodes>
          <leafValues>
            -9.5485770702362061e-01 7.2413790225982666e-01</leafValues></_>
        <_>
          <internalNodes>
            0 -1 4 4.5894170179963112e-03</internalNodes>
          <leafValues>
            -9.1079902648925781e-01 7.8352409601211548e-01</leafValues></_>
        <_>
          <internalNodes>
            0 -1 6 1.9350104033946991e-02</internalNodes>
          <leafValues>
            -9.5324569940567017e-01 5.2584111690521240e-01</leafValues></_></weakClassifiers></_>
    <!-- stage 2 -->
    <_>
      <maxWeakCount>3</maxWeakCount>
      <stageThreshold>-1.0648601055145264e+00</stageThreshold>
      <weakClassifiers>
        <_>
          <internalNodes>
            0 -1 13 -3.2243609428405762e-02</internalNodes>
          <leafValues>
            5.6250000000000000e-01 -9.5472443103790283e-01</leafValues></_>
        <_>
          <internalNodes>
            0 -1 14 6.6370908170938492e-03</internalNodes>
          <leafValues>
            -9.0496951341629028e-01 6.9562584161758423e-01</leafValues></_>
        <_>
          <internalNodes>
            0 -1 15 1.1123298667371273e-02</internalNodes>
          <leafValues>
            -7.2239059209823608e-01 8.4211921691894531e-01</leafValues></_></weakClassifiers></_>
    <!-- stage 3 -->
    <_>
      <maxWeakCount>3</maxWeakCount>
      <stageThreshold>-1.3964689970016479e+00</stageThreshold>
      <weakClassifiers>
        <_>
          <internalNodes>
            0 -1 9 -4.3197542428970337e-02</internalNodes>
          <leafValues>
            4.4444444775581360e-01 -9.5652174949645996e-01</leafValues></_>
        <_>
          <internalNodes>
            0 -1 10 -2.6609029620885849e-02</internalNodes>
          <leafValues>
            7.5889551639556885e-01 -8.6116212606430054e-01</leafValues></_>
        <_>
          <internalNodes>
            0 -1 5 3.0844982713460922e-02</internalNodes>
          <leafValues>
            -9.7975128889083862e-01 4.9799439311027527e-01</leafValues></_></weakClassifiers></_>
    <!-- stage 4 -->
    <_>
      <maxWeakCount>3</maxWeakCount>
      <stageThreshold>-1.3297541141510010e+00</stageThreshold>
      <weakClassifiers>
        <_>
          <internalNodes>
            0 -1 7 -1.4144064858555794e-02</internalNodes>
          <leafValues>
            5.8333331346511841e-01 -9.4335937500000000e-01</leafValues></_>
        <_>
          <internalNodes>
            0 -1 2 1.1521294713020325e-02</internalNodes>
          <leafValues>
            -8.4959930181503296e-01 6.0591447353363037e-01</leafValues></_>
        <_>
          <internalNodes>
            0 -1 11 2.3085411638021469e-02</internalNodes>
          <leafValues>
            -9.1361296176910400e-01 4.6320456266403198e-01</leafValues></_></weakClassifiers></_>
    <!-- stage 5 -->
    <_>
      <maxWeakCount>3</maxWeakCount>
      <stageThreshold>-1.3278733491897583e+00</stageThreshold>
      <weakClassifiers>
        <_>
          <internalNodes>
            0 -1 8 -4.1835876181721687e-03</internalNodes>
          <leafValues>
            1. -9.3610841035842896e-01</leafValues></_>
        <_>
          <internalNodes>
            0 -1 3 -2.4683251976966858e-02</internalNodes>
          <leafValues>
            7.8955179452896118e-01 -8.0927771329879761e-01</leafValues></_>
        <_>
          <internalNodes>
            0 -1 16 1.1172101949341595e-04</internalNodes>
          <leafValues>
            -9.3123716115951538e-01 4.1751271486282349e-01</leafValues></_></weakClassifiers></_></stages>
  <features>
    <_>
      <rects>
        <_>
          0 31 4 3 -1.</_>
        <_>
          2 31 2 3 2.</_></rects>
      <tilted>0</tilted></_>
    <_>
      <rects>
        <_>
          2 11 10 3 -1.</_>
        <_>
          2 12 10 1 3.</_></rects>
      <tilted>0</tilted></_>
    <_>
      <rects>
        <_>
          2 12 10 3 -1.</_>
        <_>
          2 13 10 1 3.</_></rects>
      <tilted>0</tilted></_>
    <_>
      <rects>
        <_>
          3 10 7 6 -1.</_>
        <_>
          3 12 7 2 3.</_></rects>
      <tilted>0</tilted></_>
    <_>
      <rects>
        <_>
          4 12 7 3 -1.</_>
        <_>
          4 13 7 1 3.</_></rects>
      <tilted>0</tilted></_>
    <_>
      <rects>
        <_>
          4 16 18 6 -1.</_>
        <_>
          13 16 9 6 2.</_></rects>
      <tilted>0</tilted></_>
    <_>
      <rects>
        <_>
          6 3 14 12 -1.</_>
        <_>
          6 3 7 6 2.</_>
        <_>
          13 9 7 6 2.</_></rects>
      <tilted>0</tilted></_>
    <_>
      <rects>
        <_>
          7 12 7 3 -1.</_>
        <_>
          7 13 7 1 3.</_></rects>
      <tilted>0</tilted></_>
    <_>
      <rects>
        <_>
          8 10 1 3 -1.</_>
        <_>
          8 11 1 1 3.</_></rects>
      <tilted>0</tilted></_>
    <_>
      <rects>
        <_>
          14 1 9 9 -1.</_>
        <_>
          14 4 9 3 3.</_></rects>
      <tilted>0</tilted></_>
    <_>
      <rects>
        <_>
          15 3 10 6 -1.</_>
        <_>
          15 6 10 3 2.</_></rects>
      <tilted>0</tilted></_>
    <_>
      <rects>
        <_>
          16 24 16 10 -1.</_>
        <_>
          16 29 16 5 2.</_></rects>
      <tilted>0</tilted></_>
    <_>
      <rects>
        <_>
          16 30 6 2 -1.</_>
        <_>
          19 30 3 2 2.</_></rects>
      <tilted>0</tilted></_>
    <_>
      <rects>
        <_>
          18 22 6 9 -1.</_>
        <_>
          18 25 6 3 3.</_></rects>
      <tilted>0</tilted></_>
    <_>
      <rects>
        <_>
          25 23 3 6 -1.</_>
        <_>
          25 25 3 2 3.</_></rects>
      <tilted>0</tilted></_>
    <_>
      <rects>
        <_>
          26 7 6 9 -1.</_>
        <_>
          28 7 2 9 3.</_></rects>
      <tilted>0</tilted></_>
    <_>
      <rects>
        <_>
          28 30 6 3 -1.</_>
        <_>
          31 30 3 3 2.</_></rects>
      <tilted>0</tilted></_></features></cascade>
</opencv_storage>
